,0,1,2,3,4,5,6,7,8,9,10,11,12,13,14,15,16,17,18,19,20,21,22,23,24,25,26,27,28,29,30,31,32,33,34,35,36,37,38,39,40,41,42,43,44,45,46,47,48,49,50,51,52,53,54,55,56,57,58,59,60,61,62,63,64,65,66,67,68,69,70,71,72,73,74,75,76,77,78,79,80,81,82,83,84,85,86,87,88,89,90,91,92,93,94,95,96,97,98,99,100,101,102,103,104,105,106,107,108,109,110,111,112,113,114,115,116,117,118,119,120,121,122,123,124,125,126,127,128,129,130,131,132,133,134,135,136,137,138,139,140,141,142,143,144,145,146,147,148,149,150,151,152,153,154,155,156,157,158,159,160,161,162,163,164,165,166,167,168,169,170,171,172,173,174,175,176,177,178,179,180,181,182,183,184,185,186,187,188,189,190,191,192,193,194,195,196,197,198,199,200,201,202,203,204,205,206,207,208,209,210,211,212,213,214,215,216,217,218,219,220,221,222,223,224,225,226,227,228,229,230,231,232,233,234,235,236,237,238,239,240,241,242,243,244,245,246,247,248,249,250,251,252,253,254,255,256,257,258,259,260,261,262,263,264,265,266,267,268,269,270,271,272,273,274,275,276,277,278,279,280,281,282,283,284,285,286,287,288,289,290,291,292,293,294,295,296,297,298,299,300,301,302,303,304,305,306,307,308,309,310,311,312,313,314,315,316,317,318,319,320,321,322,323,324,325,326,327,328,329,330,331,332,333,334,335,336,337,338,339,340,341,342,343,344,345,346,347,348,349,350,351,352,353,354,355,356,357,358,359,360,361,362,363,364,365,366,367,368,369,370,371,372,373,374,375,376,377,378,379,380,381,382,383,384,385,386,387,388,389,390,391,392,393,394,395,396,397,398,399,400,401,402,403,404,405,406,407,408,409,410,411,412,413,414,415,416,417,418,419,420,421,422,423,424,425,426,427,428,429,430,431,432,433,434,435,436,437,438,439,440,441,442,443,444,445,446,447,448,449,450,451,452,453,454,455,456,457,458,459,460,461,462,463,464,465,466,467,468,469,470,471,472,473,474,475,476,477,478,479,480,481,482,483,484,485,486,487,488,489,490,491,492,493,494,495,496,497,498,499,500,501,502,503,504,505,506,507,508,509,510,511,512,513,514,515,516,517,518,519,520,521,522,523,524,525,526,527,528,529,530,531,532,533,534,535,536,537,538,539,540,541,542,543,544,545,546,547,548,549,550,551,552,553,554,555,556,557,558,559,560,561,562,563,564,565,566,567,568,569,570,571,572,573,574,575,576,577,578,579,580,581,582,583,584,585,586,587,588,589,590,591,592,593,594,595,596,597,598,599,600,601,602,603,604,605,606,607,608,609,610,611,612,613,614,615,616,617,618,619,620,621,622,623,624,625,626,627,628,629,630,631,632,633,634,635,636,637,638,639,640,641,642,643,644,645,646,647,648,649,650,651,652,653,654,655,656,657,658,659,660,661,662,663,664,665,666,667,668,669,670,671,672,673,674,675,676,677,678,679,680,681,682,683,684,685,686,687,688,689,690,691,692,693,694,695,696,697,698,699,700,701,702,703,704,705,706,707,708,709,710,711,712,713,714,715,716,717,718,719,720,721,722,723,724,725,726,727,728,729,730,731,732,733,734,735,736,737,738,739,740,741,742,743,744,745,746,747,748,749,750,751,752,753,754,755,756,757,758,759,760,761,762,763,764,765,766,767,768,769,770,771,772,773,774,775,776,777,778,779,780,781,782,783
0,0.2140959139379328,0.4315759660213435,-0.10166217350673046,-0.13145353012985284,-0.06358710312995486,0.1225064843127317,0.3215698183400153,0.09057044528532998,-0.14251624216544023,-0.2776296030370645,-0.3985194546083817,0.10020904520094687,0.09699554512315466,0.1783094269602587,-0.10282569993039045,0.3885850107807638,0.4479086377272333,0.4286856214157234,-0.10956081384798566,0.3564734049191922,0.03149291355072892,-0.10521328827098109,-0.31978914490043575,-0.23056128886427996,-0.4725020172675667,0.03999966860971926,0.13262367999089342,-0.1356277757249682,-0.49967138227302976,0.05774604785505055,-0.23760070062261684,-0.06836466048864154,-0.32755964149296857,0.2262400003245496,0.43972776275230135,0.16474337541821724,0.372363540971609,0.256531101267687,-0.05707919599876438,-0.28708658268223736,0.3898886338432566,0.18898502365717845,-0.2784474923822979,-0.1213083045183254,0.2141165969827344,-0.2675659731191617,-0.48075634433005715,-0.2997675076346764,1.0953977618267938,0.28540089818142805,0.42306414743017307,1.1179258402640062,-0.029117472514211706,0.30105606792735773,0.07737012624223738,-0.009489035883213814,-0.23886652038198608,0.03205760369632982,-0.3872339974344906,0.4582595168473478,0.04433382298058538,0.1927478830301852,-0.25745805778307107,0.7405413429659456,0.22016526550039153,-0.13246511578234518,0.21738821769520614,1.2504193187792692,1.3780495196601041,1.3252394893728903,0.6138956672057468,0.6423557196578263,0.553428307627636,-0.24213055362581481,0.9882060806507068,-0.0038194682726235374,1.0813565092102413,0.14598881451504164,0.7837137463804792,0.776513684684816,0.13957821785530627,-0.001975134249080135,-0.43105734858941924,-0.4979524086814092,0.436616068128418,0.44411187648525297,0.37174025651260467,0.35301762493054695,0.3356586051488187,0.2927967665144402,-0.03579314132771182,0.8082519114312818,1.2745154538113763,0.5881196799010228,1.0968763077891177,0.6280294058260452,1.3909521769480206,3.143927157743266,2.709407208076911,2.3046472681194863,1.9232179124302582,1.303375611392505,1.4020000406985527,0.3765648080177536,1.1247192947377553,0.7442363398035937,-0.05862838963589374,-0.3498569302395907,-0.46254037529986425,-0.3783351611811789,0.47284705754073164,0.04641103034376748,0.4306905333807136,-0.06814347597564385,-0.25233003474422455,-0.4595106468229869,-0.10950626734717911,-0.2204848577318524,0.11087115638698834,-0.26542251324570937,-0.07564566524308479,2.0207656003216456,2.0287026669105184,0.5669789126233785,1.150885354334997,1.2424566808759103,1.4564128364521316,0.22985545324848014,0.5359010973882635,0.9803703671266303,0.328711824925982,-0.8463099539202936,-0.006789731555004106,-1.382686606809317,0.9506481870025937,0.6064958614248765,-0.02022997210461159,0.06227156037081489,0.27554210769444226,-0.17490472445083316,0.04613771428224922,0.11617024242364815,-0.47835134526487233,-0.4463797094306796,0.18864205291947814,0.18702843846881065,-0.747377797381092,0.34363072697895675,-0.10199751001350575,0.956867690729788,1.5669570838575653,-0.39553511554691523,-0.5593460369733299,-1.1333143929171998,0.6104064316811639,1.2142257950707858,-0.7417186689233201,1.292442425543076,0.9429706451331666,0.2336829465912572,1.0534230653698105,-0.04112466816495924,-1.8634312594807072,-1.3189907204469058,0.0790670405388638,0.03917801218654664,-0.24050610311140605,-0.09184393343211594,0.3629918668161509,-0.42949355952236545,0.11983868668021264,0.7005196527059042,0.3074675675331068,-1.101675821338519,-0.08104942270965185,-0.8720239233080956,0.052352645777548196,-0.9916085305533412,0.3762762706324,1.4157630274786956,-0.1359290034970193,-0.04542473888504688,0.6724261351486348,0.5280687941941371,-0.4505036027858712,0.4389612742470156,-0.9149291405964053,-0.5117242745195144,0.5613938504703501,0.6869350773877627,-0.642951121206319,-0.17300911363567043,1.907720382856298,0.4789261420791491,0.21923516202979443,0.45118317324034024,0.3165082023406073,-0.2533329347881608,-0.31887753803795893,0.24008334227891823,0.34014000576209136,0.5855227193538564,0.802928191302455,-0.053092918347580696,0.624932033234535,-1.2064694255236192,-0.29215403118425987,-1.4061780513497544,1.1329722039661512,-0.6963506065763375,-0.7130824357514829,-0.17414885801881255,0.49663500915194925,-1.1568575174676574,0.4131688152747182,0.44293343596011714,0.26551144359843926,-0.7734826987341911,1.2292406457223517,0.30082933669295164,0.4064074868497103,1.2079184480014113,1.020190670344242,0.46870935608484976,0.16479483219976532,0.3656299732629514,0.34456050122765736,-0.8455051315819058,-0.614523352850917,-0.1577204415888397,-0.5027820520066159,-0.20392024793106756,-0.6531777545806596,0.9392664457768062,-0.027803600138435542,-0.22808925804062258,-0.11639813037311919,-0.30341154275664045,0.750054037228287,0.2921250533223631,-0.04397173985640539,0.16548130088699697,0.2505054393922208,0.27336633532800986,-0.4161842659467584,1.21837173314749,-0.6539316449068349,-0.4511729940897139,0.00408001217374606,0.11185682440947457,0.8736220050862015,-0.029425095537444712,-0.17221559988250362,-0.10216778890424294,0.010541328377420278,-0.6475853590741616,1.0475595901494297,-0.7692980637044391,0.3447572856739809,0.47508590598219075,0.08255810965034222,0.05463574632155734,-0.5904463583552447,0.4753139357785554,-0.9016646634722144,0.11486476141818976,-0.11679184574140385,-0.8472942204595721,-0.3937747345756887,-0.5787102367028524,0.05649653471145234,0.6279266649258731,-0.4294342944837709,1.0881103751391572,-0.13072387383420642,1.279345776966611,1.0715949986339404,-0.2218553809637836,-0.12045347474842552,0.3055016846123635,-0.42392873062042696,0.28687816095879654,-0.5473507059879266,-0.8390263430780847,-0.03641719757196695,-0.022920523947247938,0.03246947155643602,-0.3006445596128459,-0.07737395766005609,-1.4114438521357895,-0.313975818399733,0.711140966037372,-0.7326789033359474,0.4498716811828979,-1.0822299431637497,1.2130536580741613,0.4672892008434323,-0.4987122075765891,-0.4654970920709446,-0.6959412974095553,-0.03694555826575185,-1.3649866797025056,0.9327946295031608,0.154450947072578,0.07872514817220413,1.7620593803358142,0.4177561198702424,0.4384217057545954,0.3418828666984147,0.45470918340382505,-0.1944272604872133,0.14119080921422986,-0.5982961502449587,0.19770561666427422,-1.9478213621864415,0.17315606019465865,-0.16039200849518934,0.4438865864565643,-0.250823488333585,-0.6525387686960145,-1.5421334746830067,1.504641725184365,-0.6073125845828222,-0.718489648199847,-0.8402069776738322,-0.6138661419978921,0.02415004205635893,-0.4027217676953128,-0.15336261296120918,-1.6162398521706027,0.11790478836295046,1.7341751646465502,0.6493273602694897,-0.16341436690027433,-0.063922876996559,0.13019395069070763,-0.4338138655376047,-0.4751011677561684,0.32716600081723674,-0.8673031057619197,0.4800347768245783,-0.07717162459333163,-0.43486313629694456,0.07661028103721694,0.6248186927679673,1.0610619897642237,0.03272115197153603,0.16460023053378295,0.6140993765971401,0.8381288691416537,1.1178177039836286,-0.3812046769087762,-0.1669491760531695,-0.8164499208764463,-0.3585950433387736,-0.7981906460916667,0.6686685776663522,-0.6994810132964371,-0.38307934188521636,-0.10239046737435811,1.665576136244319,0.10592905195725467,0.33641704285142376,0.26986721074549946,-0.08121215302807039,-0.13638595341431725,-0.010599949390601297,-0.7576446212308763,-0.8982204843587478,0.2790914642172763,-0.9539275399815252,-0.3177176423370721,-0.43532226513817013,-1.6777733829535866,-1.1682482947782649,0.5355596978836425,-0.3198230412712338,-0.27013592940760633,0.3275221212363672,-0.7199056957080293,0.19375444503501144,-0.7126514710066588,0.2840027594238374,-1.5252842415674663,1.3221884406454272,-0.7933535866136617,1.4664915391540578,1.0862032647385282,0.29929295165171876,1.026740444946635,-0.0034044134476365418,0.3818383329236006,0.39020788896976366,-0.20089650610005372,-0.145977707884782,-1.280480188581238,-0.7477589362084615,0.11836175096670982,-0.6634334388223848,0.01957643941221847,-1.693870991219357,0.9521576020077103,0.5484436090848324,-1.7240593542875706,2.0485436938291772,-0.522366778690597,1.1465053752302417,-1.0161414591358127,-0.6347590122123578,-0.694320504277973,-0.2716708265120277,-0.6089658532327452,0.3413892650109572,-0.2994166124698289,-0.19402535266853585,-0.3956680609833214,0.9423557794843086,1.0635370818632557,0.2338049991445687,0.28704986791446285,-0.31696654167545846,0.3268042236580636,-6.018191077172426e-05,-1.273458479801571,-0.8549365763375718,0.4227603383379323,-1.2173219719730919,-0.23730338404625198,0.5556728595060686,-0.7132053024584177,0.946876029419206,-0.6325029707088317,0.6548680700658317,0.2577827126365094,0.37816586102860994,0.2239979758528365,-0.4282024742584353,0.3464530880237754,-0.47050193168712395,-0.3220613229884011,-0.06660743280193732,0.3095425180644796,0.8739959132748527,0.7758824033724673,1.0360642193348448,1.3636327367366483,0.06999704014459834,0.19796210128820024,-0.09742107356163554,0.26468380669673136,-0.2806392805210358,-0.21830904954871355,0.5992216599289273,0.3734993286159925,-0.3188690295199208,0.3052745168909905,-0.2954961411028351,-0.08277253173303224,-1.0665850935701753,0.6266146765579665,0.5838670713468483,1.04166562816311,-0.41296817780332645,-1.0787666550661879,-0.9627479214096564,-1.896414432765507,0.33814725032136056,-0.5171944957619296,-0.31898435240784856,-1.446363233165851,-0.5001550300649764,-1.4690276577630765,0.08440300703448919,1.1837753028289912,0.4526803687634114,0.10775752964042251,0.14708437389884643,-0.04472373165163241,0.28124424029261047,0.16077919575302543,0.48612445854467884,-0.6766079418309814,0.3796971789415862,-0.4062750671432267,-0.8011261750163131,0.028785171763521068,0.3301058185469178,-0.13652254218400642,-0.7465143986533398,-0.7203370164735617,-0.2900902556845084,-0.7871791982931108,-0.04916957090804182,0.29194615725816997,-0.14282963017060846,0.44620456517736556,0.09960073389046689,0.3550140756609301,0.7328334933108294,0.29768289160250094,2.37858547524604,2.5196312654821886,0.688842713585217,0.03613418386951049,0.0306085880318,-0.36262126071526896,-0.0987057166483958,1.2718458988458239,0.5441332301419778,0.35500656188829116,0.13508014627135492,0.2470487814622701,0.33284592757783693,0.6300387050853721,0.8712245208516858,1.1467042341865432,1.007642382791681,-0.7327526493752455,0.5784809626957508,0.30076045638390936,0.11757860306215308,0.12110079873029654,0.060045350599199514,0.026018036233256235,0.5878930652996873,0.9468507257539571,1.9374331533005646,1.4577322148572027,0.5077044177663691,0.9301529427427729,-0.176985753277726,-0.1106310634215583,0.453818336058867,0.4246303439816382,0.1940721206706129,0.38844873767725163,0.09057925864896836,0.5959844400597962,0.8590928188927266,0.8658993338879644,0.3638200782350282,1.8320470229857224,-0.7147548687446506,0.6292470199955207,-0.19219828548992965,0.6776251101621139,-0.12246489295199092,-0.34137075473427964,-0.7235932448015067,1.0436385158703436,-0.25148731310088995,1.0342428206629497,0.7329385747400016,0.06410165460568117,-0.16067004625230985,1.6937025300148765,-0.30479012003276523,-0.3332208678137639,0.40158893140885027,-0.15671185343704264,0.23325417265147852,-0.026650184362373208,-0.0031863168754365,1.4721162337362086,0.45632209127834994,-0.596252136106786,0.0064351365698888385,1.84623446533278,0.5996484755486026,0.5926514383010669,1.130267587405532,0.9215099102646839,1.1497673149104763,0.4111165151854129,0.2571573121518797,0.9529777125271255,2.1173656106708103,0.16868221305765535,0.6645935254977601,-0.03749987740205069,1.0281187873730429,0.26490173714676357,0.22386941307554215,1.171397130822314,0.7809305886758349,0.4830577899086874,0.2607127206216563,-0.49259309772713256,0.4911615031259367,-0.41112131457772433,-0.35405870290034896,0.8991494371503745,0.02159616005582585,0.7683383104821258,1.9863051928107878,0.8755104358663266,-0.46280722601588486,-0.036813555839950475,0.7389974290987663,0.21233596617233383,-0.06215566317846716,-0.229009766020387,0.960252776950856,-1.325919499492597,-0.22596562498958428,0.24431049178612502,0.19857406928019206,-0.9799131406507413,0.9819715955668041,-0.23227044328615712,-0.6339565829513858,0.353451135246731,1.2254522958387175,0.13418126071659767,0.2520463189925891,-0.2967471627920907,-0.3090408039871028,0.329568648722732,-0.004084131767957509,0.4733726136679682,-0.6390306140040921,0.25584518482769686,0.36306967848420457,1.1406280690676311,0.10494513101821176,-0.10067696731415277,-0.7701703650921821,-0.69933079947252,1.1843472379821691,-0.3385668576511594,1.3247536489603142,1.8463883172947546,0.19282958632469063,1.0680678759230822,-0.08757064922687817,-0.24256478471282306,0.09190655464673624,0.11368956836944534,0.08825827875922888,0.22191878115550193,0.4572529816780736,-0.9910741126419009,0.3832286210192101,0.4530755437455892,0.3598017700390598,0.23981315640108591,0.32819748762606843,0.9590699795568255,0.10882985253561343,-0.48770674483680776,-0.4009979260003521,0.6769415934518854,0.45894106275718144,-0.1618409670834107,0.5486351410322682,0.8285311188345603,0.8675395310253601,1.3105603854620884,-1.8288742104684668,-0.026911864322338535,-0.4368209802999232,0.28815159110130234,0.9207052109321568,1.1515821035641252,0.5342953867230893,0.19891272286134895,-0.36951325594360757,0.5062301479500276,0.7239529605013157,-0.4076244229654773,0.2887289349531529,0.08804578400217067,-0.46956374710223503,0.14579167639657442,0.2518941987731836,0.13819798931855606,0.2213799904282092,-0.2935764803851031,0.4679100647988881,-0.16413873018041059,-0.41695061213105067,1.1324608203912685,-0.7053668759412496,0.19782673179509438,0.45011861710990575,0.10600891437676792,1.1391993115184054,1.241804525263093,0.4841916014584672,-0.5245214109554277,0.3957644985293241,-0.47722902712895876,-0.2546375880611243,0.4539442593824183,1.245157551233462,0.6672360944618915,0.15551984014747566,0.23449077102423446,-0.014641175897523007,0.047085994620683524,0.01728351759330493,-0.10793985503516046,-0.4261960691445123,0.05600319096629909,0.6055810825042942,0.45624040256929616,0.5366634540315025,-0.9399909738847777,-0.42213758545820873,-0.35823410666717703,0.2062728437220881,-1.070271807961476,0.6587768620738923,-0.24657782038875195,-0.12510179967042215,-0.4728293223444196,0.3208216920342639,0.26377015375963603,0.04820568652755389,-0.3734686677180821,-1.3888422069872175,0.8339898065834049,1.6776040225998456,0.4794581227013621,-0.23526439144158906,0.10110820432036949,0.08798923915300183,0.014308986622711295,-0.12525251023931494,0.07169708877168857,0.2689362193329984,-0.35256529503940803,0.6234048060932486,0.16231919805009304,-0.4555306532785383,-0.3857955302046422,0.2641404842925466,0.42835409115812284,0.34478279610472384,-1.3775472679254286,-0.774916358496709,0.4185593536849491,-1.0932185921732789,0.09858073320661963,0.7994198331790547,-0.03487196144480196,-0.9961958278099695,-0.008384993962027368,-0.29372719280925674,0.576771870018019,-0.2494999032040619,0.43898415882471564,0.01796432199022846,0.12496256181409349,0.35345431941518446,-0.3682963907295075,-0.16306917043054447,-0.4601113990224758,-0.3862987396769888,-0.3730183750571787,-0.32865040126493594,0.3845969230279098,0.0922435383193154,-0.4914262286305218,0.018325213062092175,-0.08473952590968345,-0.6389517295747509,-0.25336542996678707,-0.6558261071692947,-0.4114466573664663,0.12554433937986523,0.386680553217013,-0.509874095791408,-0.27939056172201504,0.05224640277517516,-0.026263196837817106,0.21052954523630024,-0.08920367157302207,0.4777412643618485,0.22703881044678276,0.35611757679551603,-0.387161537630886,0.07850699481433554,-0.46753277457006204
1,0.021046760959853805,0.24195552261779318,-0.21476398262566254,0.038707712219729795,7.145135354225118e-05,-0.1841681571356537,0.2687553896225521,-0.303878189058684,0.28287182639793407,0.30352048620548977,0.09007790911871039,0.48300567241445613,0.3202199863883867,0.48501042430271923,-0.2553964692228666,0.14333830891172653,0.23461319862863017,0.05741358237692673,-0.342480435241744,0.04942448288361179,0.19955231606459556,0.07601672408676563,-0.1825777545781374,0.24469639079771222,0.24350184819445075,-0.38791960611667264,0.4255189936451814,-0.3712620715480418,-0.023329385998304364,-0.24793875925462583,-0.34758140343609334,0.1821313205178995,-0.013492958810184308,-0.14557603859563328,-0.12673011653759145,-0.372585749796746,0.11192288238689986,-0.2951878856456202,0.3633150154907368,0.36784763040146723,0.10827433510260255,-0.06189885681106464,0.3610937919547449,0.27343043868168343,-0.16003936838438756,-0.18283879014685836,-0.17598915112413327,0.2834351950074529,-0.42489978237971343,0.27068514564317353,-0.0007456566230234334,-0.1424017287682699,0.3112322627271078,0.19446502820181155,-0.11876475494595806,0.04863329314635123,0.49873524294972893,0.2646979008367748,0.18851267473923405,0.46779779049447784,-0.43154966990731547,0.12528163010232882,0.20267912027372376,0.3738022231745638,-0.5004659663337807,-0.018883979931133398,-0.05622557731305632,-0.22882937900149733,-0.24502710510207548,-0.18305584312373002,0.05635113098884761,0.1587026034143847,-0.045207304353084475,-0.22431358018153122,0.25478911477535643,0.2257433332724882,-0.2075446591428618,-0.14071528591336338,0.08985099543955506,0.23953073208402562,-0.39034509181398225,-0.11216229800676647,0.14691675560369644,0.3394845877650192,-0.09997241806672663,-0.4114758779382466,0.21903533549421203,0.14337401006499387,-0.078881791603277,-0.301413097485438,-0.10028291886482767,-0.08242115994368805,-0.2603502022844789,-0.4688136673823725,-0.10011997514401004,0.06253453916877436,-0.3399236522054442,0.1719721089354417,0.13676719928299705,0.13290684398162664,-0.0690871787142254,0.22709108845051,-0.08600562164290286,0.32147915531556026,-0.21133413524070363,0.37744889589852926,0.1535422966405617,0.24751669149169253,0.1731957655992573,-0.4457108840775519,0.41539637209809677,0.22058778297821668,0.36874758187873624,0.4931223645489393,-0.38605099839254226,0.23074657887773026,-0.4234904799151749,-0.4454242119915181,-0.3400612971863913,0.4203377125015978,-0.4277115900088222,-0.231723211797626,0.007395195988363065,-0.16026186307823162,0.17213021028718298,-0.2246173602911832,-0.12413383384128324,-0.23283145786566695,-0.2624992734664731,-0.16005194066383105,0.10487857644885601,-0.34415937794720664,-0.3107314684540359,-0.16658593101489141,-0.6803523734621871,0.14818863876769464,0.03126457460968386,0.17887697697874122,-0.09961652769956543,0.24283569306675024,0.43991340074951946,0.2384171962699786,0.4418867126666624,0.4392665199525347,0.360493068515591,0.0712861929432716,-0.35850526404340105,-0.0023545610160552234,-0.40055305923268647,0.09893929824096409,-0.02828914695130523,0.3729441291200933,-0.351164775197827,-0.3436402858257528,-0.15626651253141724,-0.2652323083460023,-0.7688531094838333,-0.6288935946970483,-0.4209504608696236,-0.08348174034581593,-0.3762619405429873,-0.027663618403941593,-0.20971073281916297,-0.4707651108516661,0.0057580729070243145,-0.07284911088505054,-0.41614746085559295,-0.1876240093621584,0.34716326590408875,0.13095407484127208,0.13405053584219317,0.3211501054544547,0.13752129900176424,0.4676479050874384,0.39434437534334826,-0.3272146298841044,0.012847888826956026,0.26442291840157994,0.14453101665099374,-0.5941444721089153,-0.005944090211490479,-0.33556785825507546,0.002941410699130386,-0.4402072822485106,0.07223279250135371,-0.4443785125186285,-0.3726999548352258,-0.27331914583793965,-0.1798185063329756,-0.335958343767077,-0.3237531697090462,0.16967608153589656,-0.3728484109265099,0.0433703727550176,-0.4615329859185499,0.3399784824640003,0.2537052288429734,-0.3819568248452108,0.05444855254529141,0.1732761741520349,-0.11073365525788734,0.20358875821485872,-0.5078073205876262,0.03679677365006391,-0.42424177519366174,0.20773832342660178,-0.24648538206215692,-0.3358745917856483,-0.4277435660955992,0.14446183169077909,0.25943794739511183,-0.5312691632482106,-0.30251308931152937,-0.5946858296541134,-0.505132512957686,-1.0999088806521897,-0.5345951431804975,-0.2508018362417449,0.2602869494094816,0.19901954055730003,-0.5591136123062513,-0.7470675754118141,0.02533496635373453,0.4728126595092544,0.09732646958074742,-0.05628355343015361,-0.24581760103041575,0.3659211708608867,-0.12911771958149132,-0.2291867560356496,-0.294146306299806,-0.26943672987660605,-0.628716788864363,-0.6440408439145857,-0.05650854424912233,-0.004974130248568564,0.2742225759043509,-0.36097686568765563,0.00028375616636212175,0.007876383214822322,0.37719685504465705,-0.1050836134918925,0.14258072917672954,-0.03753711982436099,0.47126719318207405,0.10291889538320854,-0.5564306790083062,0.29197486558102287,-0.331295611700309,0.044136309401103385,0.15962120190754261,0.36410849832054115,0.23094040212686395,-0.1851981970115088,-0.039089631388700675,-0.0003252041303801455,-0.1967257265988236,-0.21575070511654879,0.119614229051599,-0.18338913431527595,-0.377793045424269,-0.3524707631123209,-0.4362411171571718,-0.060328688138688816,0.0683609867253228,0.10651686283866187,0.5027731086589222,-0.37909814269243336,-0.462202700995618,0.04700576051450351,0.04066620624528712,0.7485248010657308,0.42413237415289146,0.14195968524783695,-0.044864564870030876,0.5736721790809225,0.36886313455175707,0.3393165314774578,0.16525138976954204,-0.3701991814234289,-0.48557945460427165,-0.043570180722622906,0.3708179366153937,-0.058208958305283984,0.03510302001474567,-0.4612128943939659,0.25687099282729925,-0.27773906662390496,0.23050828427830944,0.11211377454613963,-0.10103586439058114,0.21938785568611802,-0.1451249521952056,-0.04425575672193137,0.027358140690858217,-0.3567918661713403,0.723989177630996,0.48268226377148443,0.7014906294579766,0.07478701527011807,0.7002909873038057,0.5612499298334834,0.8270534797323692,0.49560334557222585,1.0251405278917445,0.6096568000734491,0.38919513877981765,-0.41916675022139455,0.4554198441401967,0.3946438433090206,0.3149854921279743,-0.3597915828797928,0.03375921468475547,-0.001561893592580523,-0.45190986760867685,-0.3523067004125578,0.3082978675463573,0.18659560535904837,-0.06459683033628755,0.2061009988729465,0.03714102380081767,0.11291303218714825,0.41670462380484113,0.0721529915150992,-0.06770178999455757,-0.08554288037448814,-0.2303681090961151,0.18466677593446057,-0.03587181549515862,-0.40941644375230823,0.04625191575040773,0.611432600879008,0.13225422294078842,-0.10644051414471484,-0.3325892059782837,-0.07024948374479924,0.24165409529666226,-0.01970673109303038,0.28781732609138233,-0.09156257551608789,-0.004593868513397678,0.15852834946873287,0.04141973295555448,0.41919399401992913,0.12244259494873558,0.010444693354725736,0.16915310454340907,-0.413888157572916,0.19647654437319206,0.03433136509558525,0.6579266944175364,0.49822988696623943,0.14316924991802035,-0.3919294941884979,-0.6689279540267626,-0.4955326762726832,-0.4737835539342533,-0.5504182011583705,0.004112578238141617,-0.634691862513722,0.25487248552724895,0.29853793082662766,-0.01045825762079985,0.34876780104619554,-0.48604686219626003,0.41976516721840706,0.4568176869461463,-0.06695683079613222,-0.5292910960698114,-0.4418073057637166,-0.39255385316432007,-0.46005338909893967,0.48002245025199025,-0.2348176533563842,-0.27282871735238395,0.4841035549727482,-0.5296526045447788,-0.48361230014931866,-0.048173891833913456,-0.25093792024800016,0.012589838250724105,-0.24598692418436097,-0.12332173705519432,-0.5246323918874901,-0.7147304640520435,-1.2116342106304396,-0.5032310278865657,-0.6838121342266299,-0.4295280859177664,0.38751554613512423,-0.23479167894863454,0.3623142374107641,-0.2915961920272164,-0.26908604346699316,-0.40478463227405764,-0.2231909341228139,0.0366132740339989,0.1431445897978094,-0.5768988782821654,-0.39486104552616585,-0.7390291602520805,-0.30537183995886,-0.4234494594673342,-0.30862747534586915,0.5214755567118606,0.4456751322875242,0.504306386677112,-0.6105698004281077,-0.19605033962755736,-0.3301378322549618,0.36168069287570354,-0.6619387797352879,-0.22794079538583106,-0.5025340698919779,-0.15215509848481484,-0.38407190394142166,-0.5456358745116923,0.04956252648374117,0.23801348650567658,-0.06837558249797326,0.04424213145749678,-0.45723553840860154,-0.22167624039541306,0.42125967663856917,-0.023921064753376863,-0.2558160567645665,-0.37948631748575595,-0.0817479152495178,-1.1299912295796712,0.11878743674802832,0.6463881295586323,0.0712828930024172,-0.3507733673367625,-0.4801970100567451,-0.45170794612262316,-0.8254244108821188,-0.34044632908938577,-0.522331685044268,-0.6577742709268223,-0.5929447261878176,-0.5821658782282808,-0.09138371471423223,-0.19773422698181212,-0.7356645723070131,-0.5042914337238277,-0.17953700111475096,-0.12397495063233052,0.42208444775523346,0.15862749755234162,0.12655729715313635,-0.4331048555649711,0.1530148735229475,-0.5513081279980742,0.2690010758201018,0.7092566402420294,-0.31172977863287754,-0.035642885082116015,0.05887822348821214,0.07379671575820876,-0.19591414565306323,-1.0815859828442915,-0.32485024621383246,0.050121293111617955,0.16688988147039946,-0.34995302544582274,0.139376418158917,-0.2382962588551867,-0.11903676444961969,-0.4718476333505758,-0.4154697375293657,-0.7739639776122214,0.16811380210113658,-0.08211663641121901,-0.21371078506488478,-0.12311068685096482,-0.3729747730346028,-0.020167645800451606,0.024883231785664917,0.31450079786916274,-0.1010873024842634,-0.03587169352834736,0.7592721937324249,0.5623175921468665,0.1925134588076592,0.696489038247102,0.18054579136266288,0.27963653166619024,0.08329928278467806,-0.09359311238767493,-0.31074719455915545,-0.16295873766434724,0.49367735342531605,0.004529369867046096,0.39531899305212836,0.3716102433129769,-0.04043636676310473,-0.4474922017144488,-0.08293320810905538,-0.30207166600482305,-0.11045837464830109,-0.5154344220869441,0.27309585572025963,-0.3638232542175343,0.3139709873744012,-0.18237773476476793,0.47132392032907816,0.38778224558414354,-0.040351552064942474,-0.1360701247750924,-0.1759576808365141,0.2296109386431971,1.1332853139957348,-0.25222493854233324,0.134952953672585,0.23571421146891186,0.049927922189925956,0.3597246446391723,0.44158910638535404,-0.21534198856501358,-0.21903790988120392,-0.04297243301082005,0.2605730975575443,-0.3106631356406346,-0.3224220549559426,-0.5358574826712861,0.049484286150516366,-0.27744016732960086,-0.22195069986231583,-0.03894417136780207,0.3572517989773872,0.08623650111257951,-0.48211563945926333,0.3835769705448231,-0.17961837647994727,-0.39990266807335545,0.14868464012473195,-0.721461823757578,-0.29014561686123114,-0.08002593389620424,0.052349820019381176,0.2583598410496815,-0.01636058945401789,0.041168161461677816,-0.05851361500817747,0.5497721872966361,0.2376345328926758,0.08690768430470895,-0.43886416208841306,-0.6108567974826689,0.026162308109198614,-0.007881808999870303,0.06591966262972199,-0.49740056796687104,0.3016628532889683,-0.22722780209005955,0.35352077897668144,0.355848484321454,-0.3167697729124612,-0.22597008837561966,-0.35332604554245034,0.29530862353872633,-0.39482383319592695,-0.056475429097566726,-0.6563588270555327,-0.2306655726220234,0.5539246308570961,-0.46383929610540514,0.4230784298677509,-0.614888648390289,-0.08580967457145121,0.13691215022389902,0.015634642990530957,0.018873926911948183,0.5110461578353394,-0.28708558430877773,-0.5212848092643583,0.10874239317484077,-0.21661012749342,-0.42059215377073395,-0.18763932669696065,-0.12915783456313726,-0.21195936996504072,-0.17732339600732785,-0.462251920605532,-0.30833456637113404,0.2540623382332638,-0.42235225995817177,-0.11553812505504779,-0.32178447858748027,0.1868086277570519,-0.08869285938792426,0.2302729607155312,-0.2745324367397399,-0.1820759796490204,0.5427887868871725,-0.3827382645722392,-0.12567115407068852,-0.07658439335836291,-0.13585874637135212,0.15445161318942707,-0.5729034040563289,-0.8250359513576118,-0.15146344868878908,0.1307237462364222,0.18458904010039057,-0.4745100141390426,-0.2069901337540834,-0.4687293248174528,-0.3194332608403728,-0.14348108419304048,0.40689649620828516,-0.3324219065988182,0.018006806859356208,0.1309836259940096,-0.15532423951835264,0.2398242697931109,0.22144886507843875,-0.47538049183453057,0.32142265319363517,0.37199422801481397,0.2718040245638491,-0.6846225840011043,-0.42605865323294906,-0.2769380901907243,0.19225714433825158,0.14614206795072782,0.4020641274279806,-0.16606661557709734,0.22074379667852104,0.34533594502929965,-0.513522159439768,-0.4720709143250735,-0.6429317532134582,0.1821602273623694,-0.35314562567519686,-0.16850606888757477,0.05954799840611745,-0.25811403551740497,0.394221949897948,-0.07438943762245594,-0.4932058877472295,-0.38989376781834945,0.15162062912378102,0.05953651167494489,-0.3060200991514399,-0.4505741148587321,-0.29842885948015907,0.2218199672575771,0.03320601588351897,-0.6157340649452279,-0.18279428902141656,0.10918423072845485,-0.3896104561335014,0.040813698949864544,-0.2701241462312121,-0.15419049738106508,-0.3683034614628329,-0.823393289352622,-0.5150838096014702,0.07355973523994616,0.06356180780977662,-0.04436148052262602,0.3176239347700223,-0.37032655903628237,0.19836227475145518,0.2598855347226788,-0.1762132637020504,0.22118702230020723,-0.3957241286088971,-0.34732181205635426,-0.4037201815167497,0.302561279138585,-0.427668933786036,0.10939051617170348,0.15214748742186662,0.06481935817801777,0.47122908881348474,-0.20575580632909465,-0.2957345745184187,-0.5078671373943975,-0.20200209572705757,-0.37046676880429313,-0.6374257680922235,-0.3012602371235419,-0.1131314611088774,-0.6920152024154835,-0.07837066625473992,0.16570722820803077,-0.25615270370501564,0.19536598283273288,-0.4055525157706848,0.4688105748635188,-0.47931880805709887,0.2039683147232491,-0.4022129119188899,-0.14736397003408985,0.1277519794779582,0.10003039805874525,-0.424212681617089,0.252747405080726,0.4430529726923672,0.4529002363089104,0.3411431579699828,-0.06653809863527112,-0.4668798706889261,-0.2934874550743689,0.05276976296025223,0.04221195533772828,-0.769005748127276,-0.5980837446646421,-0.38656825272580897,-0.4456964414638935,0.15909494513630637,0.24898910669362795,-0.47517195366081333,0.12550122121607585,-0.26083134306851585,-0.2547091784396612,-0.12033978270171894,-0.3330864462721089,0.1823801770860016,-0.367568266405549,-0.25716361265602883,-0.2663558762398768,-0.2832745048344779,0.2919982982243844,-0.18704012174426132,-0.3371027933778945,0.0029859253365462912,-0.041342723049296426,0.24029070296576838,0.1641381584669972,-0.29609845462459733,-0.5205025133648853,-0.19851486192614787,-0.22534484697318505,-0.3838183604449063,-0.6454276724821318,-0.6360922869820054,0.29077374887281643,0.35401288480016335,-0.4212134155944786,-0.04580565162486224,-0.10657155214311674,-0.5045913811700989,-0.2336011422857415,0.34591377930318157,0.4012988588725691,-0.28033227625203666,0.013484153027284304,-0.22832802244740646,0.3509251340223807,0.3423456912281835,-0.27063506634140744,0.10437707310848476,0.4930808659171343,0.11566502955803348,-0.1354944283444226,0.32387309628097494,-0.040528662406772886,0.371119047886021,0.09993541942296169,-0.25653765399290607,0.215978088353658,0.14093546411248298,0.3008866784691308,-0.026835862986218352,-0.2036489763820775,-0.3294208681621973,0.03864116938549875,0.4594008493458802,0.03306729297255456,0.07266169126550438,-0.2152083925219059,0.3945199653594087,0.44931644023917544,0.13482786577056957,0.2514596090528035,-0.48199007298817104,-0.28741721939626574,-0.04418888761603579,-0.051943709905000746,0.26339025903374225,-0.25356584830178375
2,-0.0051426027147994935,0.4554614975455691,0.47006106972616946,0.042100329497339106,-0.47905425324277606,0.3559180962444789,0.2923213541352283,-0.42617390323566073,0.4143827570847324,-0.40134827345052826,0.17458049339340187,0.03342294148294589,0.004265947766156004,-0.41169407677447795,-0.4313076219947663,-0.03728402132430433,-0.24266099131182794,-0.15243924993173996,0.3568790653846742,-0.44201801741363467,0.29061097647688683,0.3882364716648137,0.38240945078740163,0.19605842870199053,0.19817857144522943,0.37138187756235563,0.21352630545050622,-0.24330514169691186,0.4739485026803363,-0.3555645124478032,0.13567728701159443,-0.11717222457658316,-0.38427818996947805,0.05794654002324062,-0.3532902069194562,-0.15783450488055856,0.07362119406358053,0.0028991380661227153,-0.3979269711048522,0.2910903546592859,-0.18275790778245768,-0.3433449514283171,-0.09082819182628607,-0.2934135315094286,-0.23572263796114046,-0.0967668193587416,0.7736176467361976,0.14320579446169127,0.3910994929653446,-0.4029057176191213,-0.1842264376231977,-0.014966031881858721,-0.08216766853350876,-0.4767415294723585,0.12447626262746325,-0.3184337234823743,0.360525597222061,0.24609879432282367,0.021532112136153247,0.16041921503550188,0.2944278991838851,0.024518735270346217,-0.14591007881689366,0.23888655853229748,-0.30077739312527757,-0.003923505734737365,0.37308838765539065,0.18009874858970482,-0.7176380626846842,0.4510106488472146,1.5066193085042863,1.7401187187922678,0.772599809800777,-0.8234271845190413,0.21056590279713444,0.41166805026521414,0.31051575215568145,-0.1645133353356158,-0.020039826793073014,-0.4796789287565964,-0.24006530807308904,0.04737764288514956,0.0548547239683328,-0.32943389933819334,0.25350573390477704,0.4249990732279679,-0.010805030226019734,0.20616334251490026,-0.03614729137916682,-0.21964360907743832,-0.17317646179520002,-0.36370213357835296,0.20649198822206608,-0.32838367769832283,-0.6683402985385078,-0.3996245479110697,-0.028990678319908102,-0.34471411489730547,-0.011547010115070503,0.1360404394743995,0.37479910687949114,-0.2433129361595837,0.3588099698658978,0.7040260330426303,0.4922006314708909,0.7733027428498044,0.2868564298181289,0.47919693134590075,0.5772109460480543,0.5071119386233318,0.15639178457210848,0.20645696056140395,0.027411714598802428,0.16043304417733473,-0.35570589583112866,-0.34339807026395025,-0.008819741382384685,-0.09052412860437462,0.18602480672274088,0.08577191423813997,-1.150561943535132,-0.6067851604693462,-0.4140674969865182,-0.4871098003731415,0.3591604273792281,-1.038771588860723,0.7803305982771983,0.15150893125622347,-1.4455368553979846,0.07957145476783264,-0.045011129820497986,0.3872616782983901,-0.17031582598495337,1.6790203145880973,1.419327264009746,1.1200471106065166,0.5672047190787399,-0.0820759777159273,-0.029475843446716277,-0.4140604743749423,0.38610804839979085,-0.4914803896247265,-0.14853951075623031,0.12731827408820662,1.1842922826815188,1.613144907353834,0.7525898590958342,0.6151650145765669,0.28063606425494747,0.40365704431943195,-0.8968057567296809,0.0016559264942814721,-0.08300495716072825,0.017703530687381605,-0.6626655615408327,-0.0708687175968059,0.018447779834834446,0.18890156893575094,-0.20508265817346868,0.9912799895786891,-0.13266716736395373,0.2884012896403443,0.4216311733051935,0.4024072560846223,0.4052026933145787,-0.02742216446541652,-0.032035212574378455,-0.2123131132414925,0.04738391713348822,-0.32694301711222196,0.31567603984907666,0.27689555743584493,0.9019122789991113,-0.47370966759483685,-0.06812843321246599,-0.3257078139354395,0.3234711383272828,0.3301000123751818,0.07569257311269942,-0.7439721915930988,0.41299085456656254,-0.683769655413412,-1.0855431513445168,0.41154484466814945,-0.36710149207366655,-1.0165197047177006,0.5901337868223306,-0.40410924975190476,-0.3484127765060775,0.22220858434491514,0.6554900118477847,-0.2465786505340281,0.6370919586472156,-0.26197113107952974,0.14211671390469066,-0.16937218119254852,0.11908937832882438,0.39045639645901675,-0.17121529305825745,-0.19757989052192984,-0.1296779917437234,-0.47239689043878785,-0.07275333359389598,0.8839319338799929,-0.35788105645897494,0.8819813654958806,-1.106371215823448,0.6650408146407354,-0.1796379158462901,0.19225277732172852,0.30007378183180855,0.8666664512384182,-0.6780727145146092,1.8338718680529906,-1.812113314638018,-0.0938650591064694,0.9529813796679051,-0.775804618803069,-0.43850126674825385,1.1186420212056711,1.2111283924000402,0.4323589170453768,0.10506163803655122,0.10268550520062421,0.43977006215617254,0.504262819783248,-0.01825152835040044,-0.24493706217159425,-0.4203900416283433,0.715071661502772,1.123507737431285,-0.258808507871503,-0.017626296724909996,0.549105703974511,-0.7671989473374854,-0.1436454589765506,0.019789462636288432,1.0587491166233194,-2.7533280978937675,0.5060443314248043,0.4338491201706064,-0.7291864969417897,0.3452423453620823,-0.24481244150171463,1.7375750265471521,0.10118267076379686,0.6277647130481556,0.30244860874117635,1.4697982486212566,0.37394185655518636,0.12040375396548662,-0.305141863686328,0.3660394060668619,0.2560503256261166,0.48615809805578525,-0.08277930283869908,-0.3829598594276295,-2.003345658315784,0.17910578992177795,-1.8555284719762386,0.6279637978557456,-1.3005257583041867,1.203771322065673,-0.3900168118350962,-0.10403170559649079,1.236196750312496,0.8153454949428233,-0.6191737328617877,0.05904992647680519,1.1490841011971888,-1.2200899755846542,0.6140039689999924,-0.33661497402650054,0.132299737934433,-0.6744984691044891,0.27408718403880356,1.0551342914514275,0.28785740543260563,0.6381566305924314,0.3252990604157605,0.39063672154481344,-0.36404064231647904,0.3646438166870846,0.5342358270102399,0.6347169127753649,0.7277609995603337,0.5046973799414104,-0.4181187908271607,0.7549805638579732,-1.2755279082320674,-0.32088630940196605,1.1918023965976,-0.10347832697036326,0.17675644900565637,0.42484045064682097,-0.6325014218223252,1.3198291351684526,0.7339452808759569,0.5070037201897397,0.6327372899515971,0.25609791395199966,-0.3865192976842898,-0.4013463219021299,0.4442557895552382,0.13229964271711114,0.07877773584468879,-0.2304921432145659,0.09780627255286936,0.3623152763505301,0.038915554553851754,-0.10533843584556747,0.27345550365725263,0.8014939887177919,1.222616250577007,0.9932154176258112,1.6431625514612689,-0.4024216990533719,0.6861696873135757,0.24288879592631762,1.060615973187115,0.2509685847971105,1.3555635381114872,0.8271673795862599,1.4826905725054969,-1.4127923607449908,0.9566762714367538,-1.0571905286261583,0.5522016983911251,0.7331899566225385,0.4575537920239672,0.5434974838448781,0.35179635066239534,0.33752484905668745,-0.03052050410417239,-0.3512874167622895,-0.35737328344627667,0.1697692826044218,0.12848447464067353,-0.26093729740972904,0.8346620116051882,0.7177171777262872,1.0359045470185164,1.1441333308067776,4.677769440045274,3.1083237756877122,3.8046274250301853,2.231701954168641,1.5946527717807457,1.6814645440384832,0.3711784696257614,1.2797808892509237,2.3902870924817954,0.27223476631711035,1.410219098063612,0.8117745909306022,0.0016511184695910323,-0.7750845877526749,0.9662439641185164,0.5104755820397541,-0.24169088638459227,0.03803920273045609,0.029574434690027566,-0.37143446306152583,0.03288419314737567,-0.3388840288630435,-0.4887515035857206,0.42189048869345613,0.9417262611778984,0.5682870998053224,1.9307802092363233,2.1371068323156344,2.1197221459704383,3.598781671264903,1.264176725567992,0.1139586058830157,2.161186602851479,0.9230668107847794,-0.1367213236861213,1.003043758217444,-0.34115016397496284,-0.7385286616659226,0.342057605700578,0.4609538903225753,-0.45193282233151355,-0.16930271436499075,0.7544766687429024,0.5666410458164496,0.838697674233108,1.6473355870877926,0.6748641903519185,0.6056654153057633,0.2687416378131814,-0.22352375474121755,0.49602136974083855,-0.01280112890208455,1.0363598799498392,1.225549167592888,1.7642388113925365,0.2382047822793263,-1.0894079557844587,0.030275762964448918,-0.7643507473351719,0.8968172953126885,-0.16422148580089904,-0.16288170927374238,-0.6819861359234622,-0.07633272511833343,-0.020821336700920085,0.7158707557129843,-0.8694608652246129,0.820628264954906,1.5379308263752909,0.48299147841132356,0.8541200796343131,0.7453029022742482,0.8657647392161916,0.43303783734157225,0.039231581393398295,0.31320273926073505,-0.05967149034586949,-0.21800957122395004,0.03748696418391828,0.12915178695300106,1.0008521366371756,1.4714772166533503,1.3321726164099517,-1.2937405259997998,1.2777281846953417,-0.4272553443592559,0.05590346439782444,-0.43871603561228856,0.30823855715168125,1.3132375287908435,-1.070202281412802,0.14161413350975838,0.9375579903611876,0.6236770537436267,0.8056992945362315,-0.5363730992334341,0.5401608997329875,0.6981964826778767,1.379139135851919,-0.5589583206617139,0.9867482939029357,0.11441512130720971,-0.15135397379634996,0.09884500638410983,0.09626204718815978,-0.48887383848404575,-0.46463897888279315,-0.08178204228130716,-0.058683990510194704,0.47128984643339805,-0.9812185539845343,-2.021210365034538,0.16167774856650322,0.1257428709975061,-0.7994160151142256,-0.8947088027877287,-0.8740493067331367,-1.1450447371795018,-0.01336795237438015,0.6565454012935762,-0.6053954789490668,-0.3581154681081279,0.1382155516080024,0.502082978472089,0.19676533230099827,0.2026634833741816,-1.1283600969015768,-0.4396607456201786,0.224668028566137,-1.1439543691058105,-1.5124322119629614,-0.6202659660866389,-0.3510678135490328,-0.24748663903827683,0.18446145255644114,-0.19627366922403602,0.05611063477201642,-0.6181657943110666,-1.627783138016796,-0.30128693502129866,-0.9612697303967613,-0.9417823245176852,-0.4656701632516566,-0.4066298846825118,0.032827080751554,0.06134958237705955,0.20181118282832158,-1.6026628392539253,0.35187881926127473,0.3138188064692803,-0.16817349154822994,0.29940996202380843,1.1500512434362158,0.035467696011380286,-1.187328099166243,-0.40852799373178716,0.6917440577847146,-0.8240933921843973,-2.447958243579453,-0.9253349767994397,-0.48915572406474483,0.39543689560059514,0.47149024566265235,0.18700781195716787,0.14953403225933606,0.3961292666092414,0.34431182354847717,0.5810509634781043,-0.6360901851650368,-0.9270025225963453,-1.074298281235078,-0.3298212723446226,-0.5133507020004764,-2.3252018838861055,0.8313822035574108,-0.6440680231343066,-0.19734032612361985,-0.04768426611545035,0.08879747971111755,-0.3836340836979148,-0.12389670730979521,-0.06295036101633432,-0.478193548460989,0.6655990024406683,-0.05313239785941562,-1.7199929490940795,-2.3828308495409423,0.34363288503062317,0.2534528943996381,0.36019652451398454,-0.35481541333887984,0.6662800592363955,0.8132964309946431,0.0868852411577156,-0.7041172268795117,0.07975835547469279,-0.36968740572474895,-0.7734278557562871,0.17784639895429755,-0.07339241090702396,-0.31040376701920935,-0.30583010725558024,-1.5759304697604415,-0.5980728892251056,0.34052695476747086,-0.7400464866945489,-1.045354653608494,0.14788021862418252,-2.1843915185016676,0.32400963663991816,-1.0189377705185532,-0.6056840395960917,-1.2874908110997212,-1.3558850587126139,-0.7376156139570855,-0.21368918915222848,-0.3749454940271483,-0.06922833405025675,0.03414238083039678,0.1192509725720956,0.2103983693586736,-0.7595676999278388,-1.6930406840869745,-0.2786617030906936,-1.302212807607185,-0.20971071675406897,-1.2201094267928723,-0.7656494690676212,-0.019727299015895414,0.2938878017611353,-0.27533246600012456,1.4318472257028756,0.9089654111544107,-0.32915059685554904,0.17126263827544957,0.6107369790725502,-0.23246650955111323,-0.5889013560360752,-1.1631647139353092,-1.6000179973901778,-0.6398784656578363,0.5392769050588655,0.3490989647467587,-0.2106442265468175,0.43817220426659376,0.4844778713621199,0.019678500207240247,-0.34690322476191,-0.20652702793922847,0.3470348757233476,0.4071849471351524,1.4012860288288056,0.35448386228345297,0.8587972070265598,-1.5657417223488204,1.133611188786616,-0.4137530474243903,0.6027751225991407,-0.7785382136510964,1.091481509315798,-0.128175996729473,0.18970407515913484,-0.5506891655684631,0.960593969956385,-1.8606755964277935,0.6715571079045055,-0.4896337837096823,-1.069443561946618,-2.190659461325597,0.05180816105774601,-0.2727961421095031,-0.4110102271641291,0.40364969026780784,-0.10039117304762835,0.394018821559566,-0.07659295788929456,-0.007303403346331449,-1.4921109462839677,-0.28418315057189536,-1.0460371813978515,-1.1095048824452223,-0.1495630761343031,0.21281697518145903,-0.9032563235215783,-0.16346740209404043,0.6571573160057548,-1.110768424060639,-1.6865865826577457,1.6065147284012324,0.09611972557791715,-1.5889747333822706,0.8661410970526351,0.9267032573075671,-1.3681841613298034,-0.8738545215052154,0.3977507911166622,-1.4208397272212143,-0.6151201872565414,0.18355471283993796,-0.12789825362398544,-0.06012899449242004,0.0005554352286792907,0.3811466064776806,0.43634482710410316,0.33248370373665526,-0.36337830249914466,-0.8707687449965357,-0.341282143633416,0.4445026370622757,0.7374396743406193,-0.35249225032812465,0.593777628694275,0.19679386172554364,0.9683960557601746,-0.06600690654578843,0.7864171202805198,-0.4085964608929011,-0.46668515681760936,0.8959843568226036,-0.7880171093942084,-0.7320094566042156,-0.5721935012883581,-1.4238620566961366,-1.3398197679948571,0.13821256120233308,0.15498284078486468,-0.4284489544978838,-0.02642323310073109,-0.3473109239629987,0.4442293314404432,0.10249863166311379,-0.1736356738691659,0.08207729472194303,0.7635623784043821,-0.06317147349264993,0.03993970313652413,0.5086415531908702,-0.2835748964759887,0.8058343282291669,-0.4469656879157113,-1.2191996917947758,-0.4366012546189164,-0.31389347234157855,1.2339806051047717,-0.10659369917004806,0.4073156782685875,1.9904689654325582,0.467545102409063,-0.2793878884465501,-0.9701534158004493,0.12075032887694497,0.2558478028892441,-0.34266507729242085,0.0033354021568971987,0.4309720652070546,-0.4340069259851449,0.25358171707457444,0.3423671396336805,-0.11853627914633369,-0.2661412107948019,-0.007937680354926598,0.3807258441140315,-0.10887577011041782,0.3779348200403952,1.2862283677772561,1.1237932836914306,1.6406231989931421,1.6858676023624488,1.9381164369898634,1.1667810878436504,0.6042857611398035,0.7911880917509893,1.0225976540861732,1.0399619316937243,0.10854148591817432,0.6045204185309148,0.43030026067827276,0.8667423429466037,0.8621100960163615,0.4729667289225257,-0.26305194482677563,-0.17832864824482678,-0.3691626225323089,-0.39974582708687467,0.22457670917011596,0.05440429803197999,0.029829780608797152,-0.3721008086572267,0.44009167001144656,-0.192850413142622,0.307890580477579,0.3473499931953632,-0.2157484325811111,-0.2143574200117325,-0.1524417977678613,0.7745725523548104,1.543926443472765,-0.22073915104487693,-0.06967315664177937,-0.09019526576666238,0.18917564191965588,0.04860229429984138,0.0843424902720337,0.0891465450770929,-0.23513740704123084,0.25443814065194814,0.09682414389207492,0.3993735637076315,-0.26401801295586885,-0.3463005074257477,-0.13569387177437808,0.42677653239299596,0.35604817041572334,-0.263249036940045,0.2770209530115587,-0.29378368544188727,-0.1004067632821618,0.01616176112891987,0.43697769976718925,0.38534393673061784,-0.20404223546901445,0.21648907605777384,-0.05189369279472781,0.5341719820227,0.29130354033157413,-0.22572678731734208,0.3374043084163293,-0.39782919622927404,0.21095822244711745,0.3503721849499078,0.03874904874762377,0.3464719018054259,-0.40533020090872734,-0.055342388390129345,-0.09531952130151541,0.27657359275227417,0.3268100862720812,-0.34078249832539453,-0.1744300483620842,0.11566427398364454,-0.04453132753381461
3,0.03394881945295314,-0.3784904613642909,-0.39377885649259525,-0.22752459800913505,0.031822180482642515,0.49102754686440475,-0.1738892788323323,0.11325778180221358,0.42194822608525095,0.38955741686818346,-0.20709671286461917,0.020877409649427858,-0.26706941705632536,0.40077027131822185,0.3984606456687705,0.05051135188500167,-0.40331568071260704,0.09004709522290832,0.4360464700917859,-0.4544712554500966,-0.0810092235460591,-0.3972000517102027,0.05963149928472722,-0.383121613223653,0.3682293146861563,-0.0003162011367707773,0.49524745451529995,0.2915006690984162,0.12236682109786257,0.055547728927456186,0.19759063839366986,-0.04128357750366618,0.06588091336543855,0.11169659701829393,0.20818494237313864,-0.42762546751932995,0.39175376305050824,-0.45053363232807503,-0.4376713106939465,0.3918550718460945,-0.34429638020527,0.40884658145936487,0.35722489892581155,0.38872042303172294,-0.02777118654195536,-0.058826985946849916,-0.30259068289733004,-0.2647725834758439,0.3536025328054949,0.391554463183315,-0.30717995254446173,-0.17533509777036874,-0.3008041767010844,-0.38602343733386046,0.49539023276255334,0.2557616831125785,-0.26968325641248236,-0.298904431689221,0.1830605211647216,0.2771203369694246,0.4106012451717942,0.39134971769206217,0.249878183233423,-0.06766320179207368,0.42848659750849616,-0.17836140592806876,0.39831288266787857,0.4474309908859348,-0.37385808441342183,0.06630131115419756,0.3708695285382947,-0.15279474221270342,0.08015680011546417,0.08521461480082912,-0.1644649220269808,-0.26428966210657817,0.002058384215099215,-0.39932239221714244,-0.18123660581104153,0.2528592382850601,0.1156466677001049,0.2953933493770209,0.4151675135423528,-0.17907442777326288,0.4676527946129021,-0.19613380674235026,0.3918906137532904,-0.3578671499678308,-0.3003560859633617,0.9215354096417083,0.10437196732491939,0.29328380222384465,-0.8823554752754681,-0.4846498783360284,-0.16060137590212464,0.2549063793010771,0.991980842506702,1.1751606127543057,0.7378366228103601,0.7641711133600225,-0.24634214020869555,0.9010601568282541,1.6317714936771766,0.31041949767307603,0.1961293614580366,-0.7252159746434635,0.39835577764023167,0.11552835699976348,0.2744021032195967,0.2833812646204412,-0.49504798289850854,0.22094747392672887,0.2537264428341479,0.3932092884441387,-0.30412563642612755,-0.9925771321604003,-1.5770028481556677,-0.1162685890908004,-0.6937120431283376,-0.48815469657652477,0.1722033685084171,2.12700772466752,0.18484691776406204,-0.2795540117084708,1.2463996129855355,0.2510462436162411,1.0971168775568036,-0.2703641580346671,-0.6197717117743144,-0.03615485882635673,0.3560781980393821,-0.44966936766374177,-1.1648795032249384,-0.3491536765433806,-0.8791537377694438,-0.8576152981430794,-0.13930256269612057,-0.35924602561521873,-0.18266187064315878,0.03347905037168053,-0.31961987952096493,0.3644933784057487,-0.3922154597565347,-0.46436821929179667,-0.19544121021193697,0.231345264643135,1.4893321950281304,1.243961513965586,-0.5350102613735537,0.5812059554749092,0.6152837918434958,-1.1286254595190943,-0.7665106361157945,0.9014710855688236,0.15956765612350216,-0.24255513183894667,1.4187709997954265,-1.6430176114523523,-0.11183930454045532,-0.38500853441927313,-0.6943102157889663,-1.1198209239037218,-1.7111959262686418,-2.1185690697890522,0.660908704219942,0.11163415624511254,0.10736939234423394,0.4926957353474415,0.35782888798418244,0.4935003175547151,0.16002779016223442,-1.1098948132190445,0.23239524650952006,1.4654137259628974,2.306448276915142,-1.0465177826489134,-0.4236733819953369,0.9688656298213029,0.0893588446278434,0.7593976340048955,0.6256987253003548,-0.4729465649452255,1.8079060530626896,-0.7308185682075122,0.19896464224704927,-0.3102179613837011,0.6445363075926647,0.6903400153984143,1.352814476137173,-0.5381629093457448,0.06484569100559685,-0.969623717088869,0.0623084336077932,0.0499088965656734,-0.2636882205625172,0.04636028040749728,-0.10886928985202426,0.02857515246749679,-1.2500914098495297,-0.46058910791689156,0.5859903652316447,-0.13080741490190298,1.5776261875482152,0.14137020232441688,0.5895661528723427,-1.2638544746036866,-0.2898827352050476,0.1904053028185411,0.9711336864045973,0.015376977454529418,-0.18535938924673648,-0.35930453193697415,0.521085407305513,0.20401203894385367,0.7143382560896501,-1.449751067380623,-0.8644936726093102,-1.783697506635992,0.662085908365224,-1.66018285267217,-0.7144379834270045,-0.4088945271624365,0.4976843369405872,0.12724959550427037,0.12475127590308088,-0.5343284406886954,-0.874447301223319,-1.0756625883407342,1.137953936362051,-0.19110362948003,-0.5387616655930134,-2.0218161282412725,-0.6208369975646026,0.38530550175650713,0.15784414285387757,-0.962743119234722,0.22623310978641634,0.3033152553612859,0.048304168204843616,0.30016685896667467,0.7841497482051772,-0.38552447586075683,0.29054080920761177,1.0827348700119555,0.16737644686464986,0.25459361141906217,1.004765706370267,-3.1621219070911715,-0.9742529234522934,-0.05098835876318838,-0.044097060897664256,-0.1541187959083348,0.3360198478133642,0.14315089506399853,0.2158100705315031,-0.6637290462869833,0.8204560377470774,-0.11724528439979613,0.39040595180256554,2.6882305500046417,2.029187915086082,-1.2362577731456732,-1.4881573133183341,-1.8026471185950312,-1.1239286173603085,0.9291899744374408,0.6117471101571782,1.3889131737918976,-0.6988388954684771,0.9876613628984562,-1.0616079264515288,-0.012951349391499728,1.5508691028197372,0.4955061572494362,-0.5701216112749063,-2.2286111890007483,-0.23775615903135372,-0.06870780371627132,0.13093519433753972,-0.14495368382819654,-0.2345669530028401,-0.237973754361598,0.3372330570936117,0.20187800747040047,0.428889125289954,-0.16887581625994555,-0.1537060297774516,-0.5911331078477187,-2.2210059480314035,-2.2658875057356163,-0.01916534892515286,-0.3082943050109753,-1.7324973903172671,-0.9307353179159031,0.6226973196865913,0.7216921888145509,0.7381834757158404,-0.14833132239239544,-0.27752799885746526,0.5908201715617143,-0.0823033105591791,0.22110803982306457,0.9366396531307882,0.42774872194021774,-1.1402712025863289,-0.02332908958920558,-0.3278778812071316,-0.3964506356727297,0.4205502437778052,0.04708441789149057,-0.40499315916753814,-0.11388140985216794,-1.0165873345676981,-0.8243297874160049,-0.7482391130242791,-2.4212125406547145,-0.4447532178394443,-0.9021496352187377,-0.15819019853071023,-1.5611101246662802,1.355064283196098,0.6345698789188565,-0.39838803777797077,0.31825190657190233,1.4150517726134986,1.2217503205821123,0.7258002381757136,0.08057910937223015,-0.6202332913348295,-0.9897882467910188,0.7671622450166806,-0.7519620589984427,-0.6980298984913594,-0.2195068746227039,0.3103120434985254,0.21453663629621034,0.3521898948475666,0.25363089851514864,-0.033908407970309855,-0.2186089536880742,-1.226398311327019,-1.8044549669680894,-1.825410023435017,-1.1118752989196439,-0.7216156398742265,0.1798998575844296,-0.49204644888724974,-0.7832927496479817,0.7684425951053667,-0.3500005047206247,1.6379297762652743,-0.3187108776767833,-0.7924403626398204,-0.028891734258451724,0.06563439036603849,-0.4164341162866308,-0.41563708932353716,-1.8632457727949583,-0.3893539455374209,-1.4740451373561698,-0.2523862666597974,0.3263220570912917,-0.06579674114467357,-0.27005168307883887,-0.20885575506777665,-0.3697731884214095,0.01958921329081227,-0.27376810123701634,-0.5644124954289155,-0.3841116583236078,-0.2887888861723614,-0.17230532958918418,-0.9205100037436744,0.8994717117056791,0.5405296720638546,-0.2598015072342451,-0.2706438970617685,0.4032522903979874,1.2056895369801768,0.231904970705405,1.1586590873351528,-0.7002486169281774,0.48369521905337615,-0.38023150946263146,0.34228267255846107,-1.275995240872997,-0.24142095975102154,-1.9382334951909632,0.04381907304049069,0.40754692132292336,-0.016491463728530602,-0.13683851903593391,-0.26376050480066515,0.17019721329311166,0.14255121197434845,-0.024880552396469455,-0.6542177578661729,-0.9441608469523476,-0.3698029049604355,-0.7023387522908772,1.0585236036871242,0.48105497745332365,-2.1621899601463954,-0.4758994009477162,1.1612314300197148,-0.21704998033303913,-0.5143499087780506,0.983510354639224,-0.3125869053625679,0.46654408923301716,-0.11017450517466759,-0.3395918911836699,1.8210869106379644,-1.398228113532663,0.15947418905596591,0.3989847917494725,0.2239777144602637,-0.1396706769630072,-0.19807900883851925,-0.4035215815220975,0.46278878182492467,0.014141878499371874,-0.5831621002054721,0.330774780846283,-0.655482979313946,-0.4246541442108335,-0.842604217595279,-1.2870399214999515,0.8204827563171765,-2.63670844810972,0.9050028198291362,-0.655184809002206,0.4178265147617505,0.362490499343395,0.00864584837815623,1.0122707253713432,-0.08125456181617141,-0.6702237864343759,0.1935405881118459,-0.7583327378311338,-0.39846567253001364,1.2957626980838721,-0.5139395964780729,0.6420885852642406,-0.1984331806996124,-0.1700012524219397,0.47322056225590015,-0.491653501045219,-0.2282382528624095,0.07865382536487778,-0.16869242071456925,0.4070263189031834,-0.19968978892959252,-1.1704320077671617,-1.2973564749264301,-1.1204839371545476,-1.522657279101183,-0.2522945904069629,-0.5716238838806722,1.2656209786262784,0.4754737690381232,0.8600890617242075,0.8478390821899715,-0.3667834144736035,-0.3078484856369105,-0.4040616364969036,1.8059368511239013,1.5774896314786735,0.2978311326690062,0.434303195748187,2.9695387580568653,0.2162802311576505,0.16054373011390524,-0.32684845864070894,-0.023143044951387446,0.4959734179206322,0.2953817312534339,0.22471448016599777,-0.4864905585291338,0.7091930664163782,0.19324479856607307,0.36958607932289506,0.08169057823918478,-0.2554356042059382,0.44442837960851317,-1.9144080195863196,-2.500937068905474,-2.72148046157082,-3.412278221494252,-1.3509579939114449,-3.0969573286130765,-0.26511697826835606,-0.1487271905552623,2.1540712362750147,-1.179266974724796,0.004555030982203427,1.4779336425515968,-1.1402828179788698,0.6571124908298497,0.3607710642713897,-1.4991126428311474,-1.479542952089749,0.11686877168716475,-0.49724466444893506,-0.33310202572566194,-0.43618932156461054,0.13119275577331443,1.2653422321209098,0.9607322286876682,0.3791124513089498,0.08906781310051244,-0.13107829560666495,0.44671498800313175,-2.752124805941055,-1.0026546851141016,-0.8564010939139002,-2.281489857950643,-3.829492206142994,-0.7291001325170258,-0.07947534671206524,0.011898567323430573,0.37220509622546033,-0.1606188169369274,0.301348906809932,-0.6987057446980393,0.6834142471218623,1.211128536462044,-0.041964445677230316,-1.3995562235187133,-1.121067054008049,-0.17873424267103602,0.1687982403571651,-0.032136497358110194,0.21381651603810398,0.09401952668527856,1.3575820923780277,0.144443300640184,0.2519791761537212,0.2506705244767566,-1.9117087853220505,-0.08916393433621925,0.9982074603573975,0.6584369400883662,0.3994129204413658,1.27214402928779,-1.3393505888373665,-0.2018463060193972,-2.0575203814566745,0.37294590606849926,-0.8879895626458825,1.0498282574041293,-0.043565945411556097,0.729938461784352,0.5953177829969972,0.09155923889674936,-0.3779478878341987,-2.2109017554461907,-0.36355270258532246,0.2988738390452039,-0.4888106922671449,0.1276559980082418,-0.10561492756889701,-0.19437191914579946,1.0109363042812236,0.2895160200135161,0.4505515334305441,-0.5702535197408299,0.791387146828862,1.2257508391625136,-1.343406561185262,0.20584651751585956,-0.39733181101602066,0.604431108097288,-0.7421706657331844,-0.06789403320740543,-0.41255089400301714,-0.11294231269293559,-0.5289897044340145,1.493491643956494,-0.8212972826821845,0.2991114318377394,1.1347366594412227,-1.293688562058277,-1.0444109951778497,-1.6762400783802833,-0.2093250133903873,-0.11225532969067258,0.4202487358676833,0.14717833475249034,-0.11463129128998575,0.8856868464357438,0.7734114401039252,0.40039158089522947,0.8795390817192703,0.303518400885349,0.2539240612325227,-0.45619081353455126,-0.34909472441241063,1.0237997850075995,-0.7936650097410485,-1.0023076630451901,1.4687151961536369,-0.7708303569156852,0.8425665931224788,0.40349539466629125,-0.4614627474666993,0.12058005547049498,0.13016606713803947,-1.245489662011345,-2.184139850667653,-0.8565899674592424,0.019786790017822367,-0.4746757203630147,-0.15748434575256956,0.4387241324472757,-0.3933539289521756,0.19893703908971988,-0.03365240141385797,-0.0030260344039570904,0.12221203100547876,0.591273171098139,0.5539069736355228,-0.5501604645387693,0.062039778628365676,-0.1984364611713465,-0.004015761074688734,-0.22134534730687347,-0.7319389324674948,0.8230385780835878,0.7157496567958469,-1.8816444206749336,-0.7099940198541277,0.1743170773179758,-0.19011688217775521,-0.13531703521869048,1.439379680664667,0.3446618386431899,-0.4073165435545674,0.5767569905521701,-0.6879825019264798,-0.8677741813695485,-0.1689120123693876,-0.28184948238796753,0.3255030804840846,0.1836154499832019,-0.42284023220867817,0.14345787771221033,-0.30751058611567206,1.1513578377984233,1.1052512945491946,0.9641179557175074,0.8644029367399542,0.17342873663292482,-0.5383544322942933,0.9060705878257773,0.17956125661333971,0.13000931877100247,0.6508133870707472,0.41837462203088505,0.4201679650609868,-1.2336716447638292,-2.2912091730810866,0.03608205018349607,0.15815440088422728,0.12375041045902996,-0.8414948134343931,-0.3042682588706443,-0.3760296193326958,-0.0969167366679732,0.43937985537501306,-0.001706246318526479,0.2478129313578743,-0.4734138858519583,0.4992007137001203,-0.358759351059777,-0.2548299040396444,-0.3201066998320372,0.17922286884087205,3.500488346177215,-0.071475067559186,-0.94141611440644,0.6094760893857498,-0.17820467352193636,1.4199165432331486,-0.4182204454413853,0.6900358868373339,-0.19671913782983816,-0.4206191831536277,0.6881631553465011,0.9738314887092946,-0.8444676669877097,-0.8312083537930842,-0.48163887743168,-0.3825390466850438,0.27266515892728016,0.1082361803299265,0.07377035202327822,-0.10678564510040467,0.33023778924728286,0.38460058319211987,-0.1678546700233019,0.19779420995641794,-0.07472603187358545,0.39259749796221083,0.6440432784575085,0.38438099906070766,1.0515545877757837,1.6735835584941252,0.12482257175129569,-1.7692092444322338,-0.026784139005914732,0.8227858621868939,-0.1419020329056608,-0.5964778635336238,1.2796000711190336,0.4308326223521564,0.6541565765832669,0.9074703007782043,0.2168204173475789,0.006752073001144437,-0.1494480632679019,-0.2576245710406293,-0.01965693981149219,0.4235058358171695,0.3853544460298791,-0.36922469998575935,-0.4315629179126399,-0.3284716248411821,-0.3270751925459747,-0.43006132073008096,0.4094664306199076,0.1978226330854056,0.19970186079712832,-0.012166029582353738,0.38022798957724896,-0.4790968955547456,-0.592253484148595,-0.8821944057957221,-0.6070150944864838,-0.9135406879183502,-1.8465800138016206,-1.035044185080634,-0.22056484491417416,-0.5071129204365554,-0.5406323138099561,0.08721375155770485,-0.9169316645347951,-0.1323619184455183,-0.40194577248092217,-0.13993848314658616,-0.05807079379077306,-0.33031572278497057,-0.4976435291800765,-0.416927706038169,0.39698895598928596,0.02814387272069363,-0.4867274836766037,0.09070011749296047,-0.36628554027770366,-0.22118102339526835,-0.28397609496342324,0.30343098037281935,0.4329967991399869,0.057294812879082196,-0.2906059407559168,0.09257066235498693,0.2357541990411402,-0.411739024368853,0.37213237943128635,-0.2348761879480558,-0.3174537909941093,-0.05334671564467849,-0.4348263069993745,0.3137172263668285,0.05443607102806238,-0.18559973230591056,-0.2767753580859604,0.2864113487822251,-0.4126387475965375,-0.22798706051488005,-0.2625197851992769,-0.4226341852197951,-0.4505038358037733,-0.33751673736093746
4,0.18243087888813303,0.45709352275209447,0.15023368554106453,-0.334688143735855,0.15372983625855274,-0.1706298727077693,0.3760113054197577,-0.3289849686609948,0.05581436535233508,-0.08669687198150322,0.26376255363562373,-0.4701962845688512,-0.43093905977910923,-0.39650303365209183,-0.08653444135130446,0.012899706961292773,0.15473708816506848,-0.3162467946470673,-0.049279245632594226,0.4420752974313773,-0.07485705693651246,0.35977348013657595,-0.16940829314798866,-0.10975525199111802,0.19198121541940505,0.04665861252486592,-0.3013289985274624,0.34393454319178585,0.3594000007462418,-0.035975690182115994,0.11956557689537439,-0.128547421964066,0.00641493844979979,-0.23477980631393192,0.3065818928557119,-0.19190834440627352,0.04561749890046475,0.24657665812767354,-0.026148535281040334,-0.491184949760355,0.05374060556170736,-0.2575615318599163,-0.2699188125389674,-0.48538634020330856,-0.30082666878651193,-0.11746967432407908,0.25976514327471495,-0.030842826747100177,0.28660044995979594,-0.16708124872045144,-0.3817621039392238,0.4277385203860979,-0.4092515043005127,0.2062423383947135,-0.011046580250353544,0.0190291265019773,0.16767739390175174,0.4269948950310857,-0.23409914067870163,-0.3146834632184323,0.22046144706443996,-0.1133284176465392,0.37449325924205784,-0.14315534026760937,-0.242331616486032,-0.1604076814011286,0.3983184420079825,0.04374997845158153,-1.3172363291358469,-1.0615258025424092,0.0648241928095692,0.054900775021061034,0.14203404946934806,-0.7081841712080329,-0.23902331897585724,0.7640091063271587,0.8353113828986767,-0.27321953720706127,-0.08823097602432625,0.35568514997877176,0.23243035779973417,-0.026254113488125674,-0.16069674046935056,-0.009370088723695158,0.024181853338377635,-0.4277743091738786,0.4892313306530806,-0.32186158045558305,-0.1561456968825919,-0.3613602627595835,-0.5295329899560803,-0.3675590005236432,-0.7942392636234029,-0.6469882544222706,-0.5212331113347356,0.11032125370201294,-0.8964562501997555,-0.8368527521881669,-0.3301750902137071,-1.35431265367181,0.6498741479041045,0.7988076154568859,-1.9958748616535518,-0.8913938045125619,-0.4904398206206084,1.3743184486364965,-0.3703811422956216,-0.6864034401191001,-0.18496697848106414,0.1321934274253661,0.3675902198961948,0.288460787082254,0.020742227339228925,0.3456619704027588,-0.21964380846695158,-0.4871032280960434,0.06915939173659964,-0.3202044468699739,-0.5126578855148969,0.3593287675907453,-0.3772291099485853,-0.956161633221407,-1.8599979637204291,0.1973531448908826,-0.519854239610079,-1.5430637380630676,-0.15842132579857832,1.1278269249917208,-1.0723711854337794,0.3180939485116061,0.854425037637317,-1.1124472441416422,-0.5424561936034938,0.6950131321273297,0.9076867186072451,0.16727448912171491,0.4071081373716231,0.5190684313501774,-0.232233757527853,0.22908220777834765,-0.15300596427716284,0.1955769999342396,-0.12026098748202958,-0.4706504733021241,-0.6184108729434465,-1.1843832547108335,-1.3725680467372159,-0.3420712044862396,-0.6270864279142067,1.062491239003418,0.31437986381643124,-0.286536905950594,-0.8907565960311845,0.10346289607654117,-1.0324710636525831,0.820633844396417,-0.6666181060237018,1.0909064040901597,0.9045524352572996,0.9066972905017331,0.7777177500067047,-0.5961550438569458,0.39855070139354287,1.5179780808802426,0.6245183502485501,-1.3232314974072268,-1.0457344051877115,-0.10728574965242188,0.23754716350906335,-0.19202913501577232,0.32063359424351506,0.4277462124306244,-0.8325256829048339,-1.7493339014169917,-0.5793163986001227,-0.7494883452607286,0.1324968599074177,-1.3567515669506005,0.7902979412457309,0.8826518779687659,-0.2672077764201989,0.0013195680952157545,-0.9980287029613049,1.0546046343685613,-0.12805034810189478,-0.08197119800790753,-0.37683615280016813,-0.4019078932526032,-0.15742531097703383,1.2015315620305058,0.40210725198483355,1.018499807544117,0.8866826653960325,-1.4058955435256784,0.34542443644665793,0.515550537520209,0.31153950776478867,-0.2755677582897654,-0.5071709278875365,-0.3165520581739628,-1.0357602644965778,-0.3471140961009496,-0.6111165842514151,-0.16888057000674467,-0.41024309911667994,1.1454352229072433,0.15609201640840914,-0.8011702439887404,-0.07854545932278538,0.49646271292293326,-0.23576629800322502,0.25944271120429857,-0.07727280400692463,-0.6949974023675077,0.4171698075310225,0.49314064611000413,0.47780788238607014,0.07998162599766205,0.8946357332239889,1.9842365591398583,4.227276164640321,2.1215577222828346,1.0128154761006944,0.1989278141574344,-0.2713598841276864,-0.40319105609445494,-0.31061143663831775,-0.1943407646134231,-1.1416787728661248,-0.8599443858788322,0.18009187429131238,0.26546352753329755,-0.48116845516994006,0.6436355794701483,0.42556673610116086,0.7051947546292914,-0.3860579117830644,-0.685944380204041,-1.0140197216384523,-0.6374159978571311,0.48648403876507507,0.4808095891809626,0.13296535609687493,0.07063589298803,1.1161882060128792,0.20707046976841895,0.0156638197043714,0.48521552511201393,2.086387471460137,1.3637469797929471,1.8310069420671333,0.1072260145786711,0.4512943246147447,0.23653287752199662,0.10648046731232624,-0.4527347731479719,-1.0043470616054524,0.18962739613937074,0.24746104287800025,0.5561934451935482,0.49947906462537234,0.8177702539057574,0.9536648691038528,0.9025286934131574,0.22808981630329375,0.5199885185923889,-0.07176638479595042,-0.3362809856992563,-1.1406899676000786,-0.3138076144067045,-0.7303666543654935,0.12425003361045488,-0.7778399957489472,2.062111087223156,2.0090304200431226,0.19972396416912183,1.9930968578613995,1.1721449732881346,0.7403050329980522,0.061603339679343186,0.21773177425112283,0.36895043748635564,-0.4692038172952481,-0.12018309322855762,-0.9143982013061811,0.031248749318007172,-0.6123342350684583,-0.4319254074341937,0.8649363636786561,-0.045778511655795225,-0.21081720253209316,1.4490950225760801,-0.14422665067177382,0.8125579770442595,-0.990120740389692,-2.6280641569632475,-0.792741417686049,-0.4878709536130493,-1.5449675806011038,-2.3390265232567993,-3.134293232715888,-1.3251772256792587,-0.2469231123265602,-1.5276165600450495,0.20279286155284107,-0.11230013458048614,-0.07205032964372361,-0.08852939521220707,0.2173729820935885,-0.28577114470546666,0.2996986614741208,-0.4663564515565717,-0.7381009923828717,-0.261856735292922,0.7348629195238812,-0.03603704971952579,-0.12302268914479221,0.9650415997117502,-0.3754083399535571,0.2241741318661719,0.3018827128737282,0.20815560465627625,1.020689948740188,-0.5621078069167711,-0.7279259911383857,-0.4326224643443533,-0.5376457381119943,-0.1229011327692151,-2.9274594791658655,-6.7118527016370395,-4.496888388986294,-2.4121308550382756,-0.9231016840454097,-0.38569306637954626,0.24518067807808375,-0.17458597907838397,-0.3715994530599227,-0.0025239841240071374,-0.06209126486346239,0.04723163612124182,-0.5802808632826372,-0.3322137565924086,-0.7816145021555958,-0.18346641895273605,-0.2882006958830225,0.4696624515115563,1.069404849850438,1.3622786502754363,0.03921812889215165,-0.11537923638775752,-0.13714708031374964,-0.6701929017927521,0.4358652412073892,-0.9239990089250887,0.48468776733777674,-1.4415694410812285,1.003161570915377,-1.1763204085661627,-3.852891936038967,-3.9609665647190417,-1.8605307823670896,0.4625934586295353,-0.06565873047828828,-0.23398461127005366,-0.0363837303667236,0.3508218917665804,-0.6113642832810253,0.11614763796575761,0.5509095126486666,0.7705676067030949,0.15936591941619402,1.2232943793022026,0.8601572618986333,-0.4976809652342364,-1.2441529496974506,1.5142181450664565,0.6485597860789897,-0.2672867641365748,-0.5821960550488003,-0.548722348732548,-2.158085090168113,-0.4249725829454097,0.5908070844627372,-1.265313311059056,0.1281053059946393,2.3473527682445487,-1.5480263548472137,-3.7789040182630176,-1.6595739816747639,-0.5041863122135635,0.21439119402429344,0.06344513845272237,0.22810492877090782,-0.45648679508933454,-0.6207048651607106,0.12100006006031994,0.4318577098852238,0.3856260653792673,0.747452191364269,-0.6415399232272602,-1.1422235509200447,1.0324566890774958,0.3060986352238099,-0.42903085574970273,-0.6989351481318433,0.5954423608927787,0.4599553685363487,-0.049342107202377264,0.5535028652839322,-0.6787405753499217,-0.5589444331660531,0.7098298619411398,-0.36811951769421164,0.24081207412412714,0.35162260401000633,-2.6715105494911375,-0.46681660459715824,-0.08722102806686811,0.2947367999190116,0.16865444385931538,0.42544423076659144,0.2791452577082135,0.25090939763696396,0.003828766231447751,-0.7938904779240101,0.0459399914560582,-0.5185303924544267,1.298930516549486,-0.3512189638629634,0.20648551046078198,0.43533435590910796,0.45785969893911554,0.372091337649189,-0.19678021101513823,-1.2392319110072205,-0.5927722503832847,-1.0830758948347317,-0.3841100231109206,0.036002696441621775,-0.46266177212953463,-0.09062256954588774,-0.43525573411237434,0.43752682481882793,-0.43363304451843004,0.637414884122733,-0.020346174575410488,0.12834048473015144,0.491071078150796,0.40607059376763766,-0.22740011563441132,0.5045307903951424,0.13803711999561283,-0.47726698857460187,0.38712992936235063,-2.8620957006829846,-1.0829107719410254,-0.42522705078265977,0.5882676102756972,-0.1809561646310044,-0.220439911075451,-0.39973623776550715,-0.19481369637198725,-1.7078867021368644,0.7417316891711072,-1.0664890491462238,-1.0840729225220878,-0.6603542084884054,-1.0063770710647653,-0.23793991555154628,0.4595087344058901,-0.5319975417021422,0.4790978793546593,0.35152301355564863,-0.4387429433562676,-0.4846722664977448,-0.45735548272822113,-0.4286160300511227,0.20677467654215542,0.5242804743833516,0.5296656852456372,-0.6703730792065207,-0.03528086282456741,-1.0916761535055635,-2.152266146207864,-1.7890477882789315,-1.8598285665504164,-0.9957594904536005,0.16085877403842233,-0.7991159149651552,0.34395862060421145,-1.0215955644204322,0.08266946148310109,-0.004992818509577608,0.09707374479532728,1.9663409495901958,0.06202136647714158,0.10336032906228727,0.5862288016588709,1.2523735778977299,-0.10147699084165726,0.1299416741534071,-0.7438280939520913,-0.6054097910800228,0.2357240185257469,0.09496603572928386,-0.4004827262763846,0.3427781031197651,-0.6470798220729583,-0.4924236416887046,2.0814028545830117,-0.01978792545894586,-1.6710310248971276,0.9205608841632895,-1.7184148824062406,-1.435091773470076,-0.7503188462564322,-0.9467367398599572,-0.7414411360183197,-1.3413753474258914,-0.725030633132292,1.2670244402941675,-0.2041462391209279,-0.8127697656158337,-0.0377223312656393,1.3570448155212158,0.27718428810207474,-0.330438905250636,0.8137517219876053,-0.5777561488144852,-0.6590238677704444,-0.19099009022499375,0.2788113215738812,0.06290884616449999,0.1686539655066689,-0.07309030909329521,-0.39205842384958156,-0.5234808227797467,0.821725239543678,-0.08432429298874773,1.050178885165477,0.3466727172906894,-1.3428835820311265,-0.19538488410094668,-2.0572943040892584,-1.1187384584664466,1.0914443314818982,-0.998488130893601,0.9016756770636771,-1.033669773908639,-0.0924638672817072,-0.6423498467762317,0.19096065937187115,-0.9501073714968443,-1.3045648033856938,-0.8818995219229636,1.192701353049652,-0.029212007341608292,-0.06870710166833212,0.43645808843894146,0.4559707216357049,-0.18824568001684971,0.4420130433811523,-1.2844294985213918,-0.1911956202428754,-0.37350700842790885,0.32931219092774006,-0.2688283480356314,1.0399038064932808,-0.7013848957605024,-0.5310370735606789,0.7306813029123304,0.9268222129747227,0.030495595262835674,0.6204710979692017,0.025756910345283685,0.0984493352269257,0.7910550748070938,-0.032848834592322636,0.31467870834647876,-0.08526507576085197,-0.32552935057555193,-0.88777513540339,0.2322648145809472,0.21291129527636476,0.04438409619047276,-0.2892284110186928,0.1215955480037289,-0.19780371751964543,-0.002079733054284366,-0.4669081322012311,-0.3810088751271002,0.044657693494317155,0.03238236664835916,-0.41472109887723635,0.31764786238279147,0.4440251240504641,0.05858014441100006,0.03374811600153464,0.7360711219130374,-0.5212008046726191,0.9739405807375816,0.31252304210508247,-0.31866440570011767,-0.10493823746054771,0.536324473532681,-0.06100335464563333,-0.5624828149778233,-0.5536486266138473,0.6690357202729802,1.8525666685637738,0.09133805684754345,0.06813408246401698,0.020799573023694982,-0.14674092221637405,-0.0803319780031224,0.07058279407856183,-0.062267084581510666,-0.4923673350188907,-0.23117184334333238,-0.6188342238109704,0.09194852673293748,-0.39936284608367795,-1.0284748728700748,0.474809698555659,-0.8891138687929457,0.578675935200431,1.4883983060751622,0.12414831074330124,-0.15235188978059636,0.485704738701684,0.6035759695895353,0.13465939687505618,0.3191010112682891,-0.14659635507293703,2.098171127104331,0.21765781157513786,0.3538749890300222,0.14932495178235755,0.20090760139942448,-0.02049435838641338,0.195327219402657,-0.228956135765991,-0.10025824646591243,0.22761297845334783,-0.26632759139719675,0.2943715070633678,-0.4812057965417411,-0.09684576570092339,-0.30873965259090014,-0.17900790316920434,-0.02916944944269072,-1.0306141224712493,0.2955458273159322,-0.47549736000624493,-0.17859020837835715,0.14510902761430983,1.1039866594704444,-0.9336044329486871,-0.31168172417768303,0.4699750284471596,0.39275826493910826,0.28896435625251826,-1.5283505566153899,0.0008109617394400822,-0.009815319441851605,0.36642644630508325,0.5766537136297041,-0.01903672779011296,0.023402148018117283,-0.49531955916920956,-0.13549364705686945,-0.26483163369498885,0.12225107512608246,0.03276616412392597,-0.17631713215865558,-0.4622690240588389,-0.4535866235553538,-0.5187806997773715,-0.0023657872496688987,1.2491873814346288,-0.027095400041761503,1.16832021624365,-0.40374588217370055,-0.1768858205136821,0.7860293061255277,-1.24920102662379,0.6058800101143162,-0.5494895686976138,-0.046925132072086644,-0.6402658981302736,1.5532341393286944,0.4054213174571741,0.8003239052237865,1.005976857782439,-0.17885738617447933,-0.1934417129554537,-0.38692119389968654,0.17279163117622176,-0.16276511872165178,-0.2079150605473875,-0.21011287925634048,0.09058471743425045,0.30022228232790216,0.27144287183139704,0.09248248204101153,-0.6436270525931271,-0.2837097187303304,-0.25404596407109414,-0.24250533866981516,-0.7527118611529329,-0.34708671134706093,0.1993981111076761,1.3731095952337269,1.0813751397099038,-0.6608910047619849,-1.003598099501966,-0.4872323923105756,-0.8860686471644003,-0.42639963824609006,-0.7238479506369678,-0.3733042996818842,0.451043996909048,-0.08140472734439703,0.08181864520936659,0.07481754302285623,0.4214868414156341,0.30392438819064793,0.3000820528466658,-0.37523239592158897,-0.2703275286291271,-0.06288598742927498,-0.35209260686570865,-0.2360998560324228,-0.012556785547422051,-0.6210372862834254,-0.185057026428635,-0.16034812281001798,-0.9012601318189621,-1.448612251811911,-0.9359828864236062,1.4317124326352832,0.10964611425748558,-0.5423896205853505,-0.23971425216963996,-0.3312101327181815,-0.4953049149453235,-0.8887243098435489,-0.2239211005846861,-0.2636729844919686,-0.08200707404088062,-0.047471863663169626,0.00601661931990697,-0.16016740923634776,-0.40831726309784544,-0.3501943638550915,-0.4996212867342119,0.3821698438425173,-0.23638728368379092,-0.08059706313219261,-0.03025339817973549,0.09990971752252031,-0.20563279185601935,-0.04354869679494005,-0.21011742812022563,0.3076362082481044,0.3749723801739003,-0.16784598713394128,0.13705463441023658,0.31877516586349375,-0.18122322793751197,-0.22095079149791794,0.10626666985326794,0.13836693180165247,0.4473955077555634,-0.05914603890715884,-0.2898941426064033,-0.10332003561155507,-0.17536043355058265,0.06429806858853335,-0.30684815185534053,0.24762529154786173,-0.4843141305698565,-0.16255005286549595,0.3860838780699145
5,-0.042611107814208515,0.08152505187478087,-0.04295643654575376,-0.2635605528530429,-0.4894393566529246,-0.1680591071030919,0.0386351411987339,0.3735981049039214,0.2007731550752192,-0.16249880044707166,-0.4878482795831245,-0.1975975748615022,0.2686038763398988,0.06788390703033685,0.06802521882579055,0.3978651025431757,-0.2937154946547672,-0.18092293416159322,0.3636518030535738,-0.1225080944162803,-0.28714044958871043,0.03770932055725573,-0.4708124940142624,0.0550459072490912,-0.05268241272759211,0.403126420443201,0.3309347086864416,0.10324427805665393,0.38576541939328535,0.4175225572236735,0.03680044424413165,-0.46389699463378176,-0.43288661296395103,-0.4526180316438212,-0.1947890517489048,0.21135168173868435,0.12155882774334154,-0.38305497627957164,0.3330314886657633,0.06837854840927479,-0.3920339329459432,-0.4396374321399614,0.3691675892339044,-0.004577923981809655,0.13949442621676927,0.4089510416699815,-0.40745446464976026,-0.20151510999627392,0.056747382954679064,0.17528032268548213,0.31983751046980313,-0.42271279994611144,0.03913567098322002,0.4328125737117189,0.3721765550194954,0.3965533198205776,0.26859600554033036,0.06906264665567374,0.017744501699231585,0.2548612671652218,0.003583012791037431,-0.1763806263510858,0.2987358544143658,-0.40792575076447585,0.447239893952713,0.30494493678706097,0.2976918903308797,0.3388762333511886,-0.24570329192019993,-0.1414587265859546,-0.22786305674267476,-0.10922691139159309,0.0770510609730689,0.04622945852996301,0.19913513328230542,0.07051454898977418,-0.32584001865557194,0.20077329854570086,0.17428833997298657,0.020483456161312003,0.3884349317456828,0.24881863350521294,0.2088832158583892,-0.25081487666833,-0.1812168372272679,-0.41919738498894255,0.2975502980116109,-0.013719920635201712,0.41483975924138344,-0.24663817812349922,0.06476958599046619,-0.030630511024953185,0.6179455567870652,-0.17184771361777004,0.19355745548624476,0.006806009839840183,0.8001973480286086,0.45243555792941964,-0.12254929155293966,0.3926050034064977,0.8053666990942543,0.19948006743584681,-0.06003746754329133,0.05242320566558294,-0.1641708616067992,0.336649377145606,0.34123317300726047,0.2614205945811531,0.37433879525114905,-0.09586698738975873,0.31287253923919783,0.3578321023911216,0.4997532645391458,-0.4879310538122824,-0.25056984306007474,0.19762817973046126,-0.040202159278322526,0.025273669117928943,0.38805668115095265,0.09514527754150848,0.5464209191906193,0.4099123821513183,0.3617157135723625,0.41131612565034453,-0.05469122656541008,-0.9635514033896553,0.09799483398615917,-0.12002963706563587,0.3765376916644213,-0.16937509422699498,-0.15805760063733335,-0.37097548280125353,0.5711491799908743,-0.0193056563566679,0.6896425853846119,0.6892906122638166,0.29119943022405553,0.16185399154349256,0.10330265868985405,0.43719791077885495,0.4379828562150655,0.44523237513817593,-0.2296066505568719,0.3886432751443023,0.2723843794164668,0.3286625211558807,-0.4101983893619879,0.040343831730274796,0.8234784992180976,0.42047196000816467,-0.2904658169762526,0.04403650235951012,0.6125535861511884,0.6669271956524366,-0.994616576610835,0.15232693784308196,0.056667887799101584,0.06732358047191941,0.9925417480873523,-0.15079736720405473,0.1288767590005327,0.1956638999890188,-0.21968899277046505,-0.4376771071313722,-0.32213461060224774,-0.3833566409243252,-0.27221998707179784,-0.12995308169778863,-0.11344599969103275,-0.18554077808569167,0.23442953636734518,-0.16432936286285424,0.12053525111951446,-0.4715591882951559,-0.38907346100409,0.1740190937222454,0.8225419849070067,0.13027479726797406,0.7637898552575533,0.4434881469185964,0.33575696116935594,0.09960482285297731,0.39706804851037314,0.784971890664413,0.6373135104500454,-0.16259941982515894,0.7270794709951116,1.4982450561419998,0.24875872515759115,-0.32905529508744513,-0.027691722037997323,-0.5827570579089522,-1.0656002254761197,0.2364971438036575,0.050348616448334285,-0.3556207172432483,-0.17637216198496908,0.27898516207515667,0.15432648772357693,-0.11804720575287213,-0.3796267658803499,-0.0009460562354867208,-0.16136373406624846,0.3805949111447182,-0.013693433489090882,0.5713958761891191,0.3866174598176208,0.5526940069151511,-0.6336174789210085,-0.211729379527392,0.6149470300322205,-0.7041361108636388,0.323015998779163,0.2971050338121907,-0.26836021249369213,-0.6198367305367978,-0.6894311555715383,0.11588975665918022,0.6738070413603063,0.20354714097781723,-0.28514585430989947,0.3067080318324769,-0.1592528731306138,0.07970367623550195,0.2930068627538621,-0.26412483717835944,0.4585400033564351,0.2691942788575827,-0.14806369087926854,0.2236812635540987,-0.3124017021830741,0.22681425960925666,-0.08329263889957318,0.30863951151315483,0.1344209732143727,0.08506298909027524,0.7962557428021593,-0.340120479849182,0.15866896136862513,0.11350052128441183,-0.18378310488029587,-0.7378976080991682,-0.5069462128955491,-0.2433873666158985,0.14875322856743384,0.12085036939885556,0.43528168799140776,0.044656167381295735,0.5498468717224495,0.003956472073329497,0.23320424508548518,0.004153889411078705,0.24606246772331788,0.42001561543429156,0.4879296787300215,0.26850455675715273,0.13208324330307183,0.5143043037535173,0.05206086607282354,0.23643908222265972,0.5272465260980141,1.175754250838593,-0.2439590639062121,-0.035187422981589334,0.33418247589199584,-0.15470183154810713,0.3893963444923156,0.43835844933650525,-0.43219183758102364,0.152460215879556,0.3296583726441678,1.3491097380599024,-0.4088552958291558,0.241052360345023,0.16511573012445274,0.47737721377612324,0.33357228522151083,0.4349046204844362,0.41728163917719224,0.16753279784606714,0.1954248391150726,-0.021723615869580604,-0.1335575646163271,-0.04108966995678003,0.4539529320206899,0.14126783376055513,-0.13250832664611284,0.15504346144153497,0.5124437328682032,1.6183130655184508,-0.35501159584183134,-0.12466479251495004,-0.10306176782687801,1.2669824242663057,0.1828148706943753,-0.37423980326191036,0.31970359249877495,0.47705765372511794,-0.5500081589418109,0.7632338617503253,0.05859049620958597,-0.03985247952618805,0.26961430626447463,0.05465026866225474,0.48628785558935084,0.6865147863840907,0.121791390899819,0.14130235884299644,-0.1522261166504952,-0.2156042047294817,-0.14723489109292726,-0.4202223238421675,-0.00013856887828536885,-0.04341367037680194,-0.32805070840722583,0.034932927996147896,0.40647726312610766,0.4928046310010345,1.3906691281596155,0.8748348329227759,0.41364678120787607,0.3154990790176958,-1.186264571564084,-0.255482467313992,-0.3211835988627932,-0.10639571611496669,0.8503387365550378,-0.2783260506281018,-0.02290551052359477,-0.10993433882865458,0.8259595803164529,0.2606623512099089,0.0672044804668598,-0.23805042383631972,-0.09462847103430787,-0.19591180307204006,-0.3057948862782346,-0.4345306291681832,0.49181183826196695,-0.35542607109521396,-0.2685663201677427,-0.2479011561381454,-0.16707269828335802,0.1030981839213938,0.09977029738327167,0.3265779399628114,0.6440052088650852,0.8133928644586578,0.9608685272955869,-0.24114377327604555,-0.7885576423220519,-0.45749558423545,1.5132835100068902,-0.04561683962066737,0.515847936279029,0.7438753905344109,0.50781692691392,-0.027888097731545602,-0.04108831379052457,-0.23002460841547165,0.42566463741121313,0.4828644386027266,-0.48102813645262826,-0.28838438540011924,-0.2130193843523731,0.38044197588430784,-0.2673187301090639,-0.025761228100711343,0.001636353009753918,-0.2031192842600568,-0.16902310271891333,-0.18057820572353675,0.05273937375603474,-0.4279726217439457,1.1905361581565204,0.5712994325719021,0.6446975498656121,-0.41738067120830463,-0.15561379396217495,-1.702885503283222,0.39527736930545,-0.28313399354684793,0.8507343266753504,0.25753110399031665,-0.014777090279921874,0.1300887460069194,-0.13055613402702257,0.2802074098184455,0.24999033268828066,0.450671600606803,0.5965022824973821,0.49579147758771236,-0.22411069286213836,0.4822193155215908,0.4730293310311051,0.06911084639499154,0.4350807759311729,0.28155068071113776,0.3227158379343952,-0.2098890654499596,0.028609730896678814,-0.05171888105884789,0.8984372050242773,0.09100810719966312,-0.326618497947811,-1.5442653117239786,-0.9736044418806972,0.9779594721126442,0.4239757165877637,-0.6044126616704043,0.4163022569703249,0.9515908662750475,0.5126223538385787,0.32139155437564054,0.7324683546461381,0.4491331037548803,-0.23518139598776014,-0.3068945599981022,-0.2768381199220159,-0.15172436815203671,0.4363469272506604,0.3204578943905788,0.3777487374203146,-0.4470001250236212,0.19952581924953172,0.1711772596975229,0.7092892168093028,0.2718041380178145,0.5364696323940384,0.5378563236302034,-0.5885971026292689,-0.6235065511558001,0.06308605599450258,-0.7846156501669835,-0.7772150825901321,-0.07822970456721542,-0.5489707182826771,0.5194156693332306,0.6038053817859833,0.9373387954814761,0.3851600282965656,-0.14596019844774796,0.36558897772007004,0.20171978101563148,0.25714981456652064,0.2590495596109715,0.33231758154503077,0.22496326646051512,-0.0516585099935849,-0.14839840959491363,-0.07738630158204673,-0.02242233615256175,-0.11900518286105342,-0.23225193175786313,0.3818721228010874,0.16720107322797753,0.5212507821455526,0.20935552701022045,-0.2453697518800221,-0.35900968648000525,0.06637321561125419,-1.678912634236453,-0.40615324068318037,-0.17297771759884717,-0.3447881041549029,0.10648002027147269,0.042980175875522574,0.7671098956686628,0.41163658793550867,0.3413104481677455,-0.035589736651293856,0.30180005172785374,0.11773817741062187,0.2285095965723368,-0.0050138463688760865,0.21254684670159985,-0.0024465340000339175,-0.3569064143396839,0.03145896867044557,-0.04252808346605986,0.27694642658972335,0.4693216400893565,0.060230819263113765,0.12533552394332728,-0.08675644168211626,-0.4395386608974595,-0.9313899743853207,-0.40287177408902136,-0.3746774467905309,-1.5932586734672587,-0.6582600586095276,-0.3936793421589475,0.3718962824331868,0.19498083346953993,0.5377136541493389,0.25059938853993735,0.5986856137342196,0.3371837918149578,0.5917870814499306,0.19779009163031444,-0.12009840116961379,-0.04401596862136988,-0.0035756247337492696,0.5423900763323749,0.4953668612464859,0.22879013601520906,0.15377108320278182,0.27992386906188044,0.2259710160239898,0.5294736011599367,0.9636820231559177,0.7317170825010086,0.3620033765021866,0.828504592877335,0.4502752029438145,-0.20903639834429188,-0.792212138037144,-1.1245368794748791,-0.6009508704372832,0.5658636424458876,0.7113675844646924,0.10842180580491882,-0.2851238864168735,0.2406557729840256,0.2879724624383414,-0.09917727882292547,0.09994778679261165,-0.01255411059530378,0.030568246080456288,0.26833879052853804,0.2936795503434833,-0.28339506484456956,-0.25815937479132234,0.3368441933506396,-0.348023273258911,0.2678396590087265,-0.12230561164395111,0.21718804504874326,0.21012456939419147,0.269691159369631,1.0383372035563856,0.5071044532742303,-0.36382182306472693,1.2638875368874625,-0.28591156885779945,-0.336183336861609,-0.2716263254872015,-0.3529367315881498,0.31635936170922113,-1.0439607999140768,-0.05418964358703974,0.8672943495541103,0.6358726939285794,0.8907011901430442,0.7220318875214489,0.13874787197046995,0.30580383264819194,-0.39200826689453877,0.2730030599920768,-0.22524689917837776,-0.3716290177434646,-0.4307694806399881,-0.45232406373008444,-0.0050039967147020355,-0.046370213113589125,0.14076044759147863,0.4537031716378462,0.5024535417255442,-0.37090074896842246,1.0675487793834535,0.012439862236355397,-0.534332718426004,0.20308627937101767,0.16599805679628765,0.23863398830734167,0.2431257895850757,0.19353317587701627,0.7610354555333129,0.1799559483603019,0.47094075750308434,1.2437930505476766,0.7550167941755777,0.1073588510966379,0.45133101000888615,0.15865759237644872,-0.12988232999625618,-0.3871816691083076,0.29099756068983773,-0.17190935370854785,-0.28900868977558736,0.022577287924943134,0.13590850161188456,-0.5662215042720855,-0.9925240334300222,-0.07389558175931277,-0.322526396836176,0.3451788151057542,-1.0118568615879877,0.20408051709967592,1.5455400924171638,0.26541085512013135,0.26047459353852087,-0.09765781829068255,-0.1827745024765764,-0.1709240107644196,0.5206689407075071,0.8215757762696958,0.8275636734558071,1.299292660782806,0.9030956171227782,0.593891041764828,-0.18557806905713764,-0.30021685167713696,0.005414185520527996,0.28720616614291467,0.1883442641422456,-0.057825809028040354,-0.1601526309797763,-0.47708285004543033,-0.3837263048587476,0.4301944787566264,-1.1241982800795076,-0.39731966090525167,-0.6166680110635183,-0.06091667740964864,0.4282901323335781,-0.7331272771910056,0.25349532588213236,0.013110751117162488,0.8263135451539946,-0.8255578578575737,-0.12119539054983737,-0.29936506765132115,0.05089310718897996,-0.1770007672412392,-0.4710386230561429,1.1752277629477201,0.4495544563003616,0.5889317710733115,-0.2206056888965855,-0.17400520018261348,-0.4327417622000843,0.11508206135453244,-0.44810334482125924,0.30622861153778336,-0.2782029888370967,-0.32036079646368465,-0.4887146132814456,0.5938579886571295,-0.44739592900507996,-0.326825515142856,-0.9482653592797391,-0.032792698398920586,-0.5629564969033823,0.0836665436694517,0.3060692457403707,-0.037646844059576696,0.5406159005075295,0.16783958851158837,-0.2011386174059394,0.48036279710754076,-2.2730918751602855,0.0012778622358895538,-0.3424274726828943,0.38687038859097195,-0.09580389494377681,0.05564484279706184,0.05716019641667259,0.3624706483908928,0.41489155288108404,-0.6109013459537865,-0.3894517721684294,-0.4918415500690647,-0.37186718077873626,-0.038874368175435645,-0.4353253330655022,-0.0134101787533718,-0.34742783192859067,-0.17976760216418164,0.11564108422506762,-0.19651896028003957,0.40025983195759934,0.6895815293274351,-0.10090537981141948,0.17511386814866575,0.2088669643479913,-0.392092924463799,0.37509433016190785,-0.5764783265197773,0.26445381100176985,0.7307578196734447,0.2277598045046914,-0.24843950844981783,-0.1415733399905426,0.37347786676830774,-0.1329336515901734,-0.3209136231135559,1.704607683164685e-05,0.03142015012782551,0.3487632671345856,0.439618545535035,0.3289180587666346,-0.480357741957446,-0.3207518489311357,-0.19218146153318305,-0.6989140817200016,-0.6880170699918983,0.7517337799917004,0.23951976037705286,1.9487763648494476,1.7264023832871211,0.19181343496038933,0.06647471405443188,0.8373664278661189,0.8687161035607169,1.2503974709381953,-0.1297465512964379,0.29904722061047606,0.07764945235692254,0.056961598681908,0.21189736074273646,0.13935411040753443,0.025716264855250838,-0.48354100937655015,0.20182406503783884,-0.11087985683063262,-0.14025088037623934,-0.2540659641444829,0.23139187604872635,-0.14433480811764932,-0.13624467500403636,0.4535636551604745,0.3682503861943994,0.08264976478446373,-0.012311919454612134,0.33607587979441217,-0.256306604056387,0.18999577697903935,0.0626220835156937,0.39000683500728295,-0.018513754607209984,-0.23565857317774042,-0.1570091453648706,0.27494391149799485,-0.1337166525538801,0.02940439331851634,0.4957546416396759,-0.2117092024154024,0.05783219497562424,0.3718335276544871,-0.26464850821043073,-0.27236430107706316,-0.14115169293476004,-0.3094686967378395,-0.0377677845331752,-0.44565677703898676,0.25511999890180737,-0.19813313930072118,0.05694570786948694,0.014731765455633039,0.3616214257122736,0.35921269936602296,-0.22360303450926053,-0.06772189952307074,0.2877503701277661,-0.048575684836338784,-0.32074898538728275,-0.3107381215737454,0.38582579697120023,-0.13656897868047504,0.17199142242803322,0.2886877656647325,-0.07845629914636286,0.11804006847647977,0.016205459140531026,0.3466460911875216,0.3322939354481583,-0.11988350513610525,0.42648158376073614,-0.10484267922539803,-0.28109196204190057,0.13901021718387274,-0.18688589788578713,0.23632535081782724
